svm_type c_svc
kernel_type rbf
gamma 0.00195312
nr_class 2
total_sv 826
rho 317.888
label 1 -1
nr_sv 405 421
SV
32768 1:1 2:1 3:-1 4:-0.999991 5:-0.997654 6:1 7:-0.0285714 8:-0.166667 9:-1 10:-1 
32768 1:1 2:-1 3:-1 4:-0.999988 5:-0.995228 6:1 7:-1 8:-0.166667 9:-1 10:-1 
32768 1:1 2:-1 3:-1 4:-0.998983 5:-0.990615 6:1 7:-0.0285714 8:0.5 9:1 10:-0.764706 
32768 1:0.5 2:-1 3:-1 4:-0.999977 5:-0.994028 6:0.951807 7:-0.142857 9:-1 10:-1 
32768 1:1 2:-1 3:-1 4:-0.999994 5:-0.999421 6:0.951807 7:-0.314286 8:-0.166667 9:-1 10:-1 
32768 1:1 2:-1 3:1 4:-0.999871 5:-0.992682 6:1 7:-1 8:0.333333 9:1 10:-0.636364 
32768 1:-0.5 2:1 3:1 4:-0.999984 5:-0.995121 6:0.951807 7:-1 8:-0.333333 9:-1 10:-1 
32768 1:1 2:1 3:-1 4:-0.999936 5:-0.985339 6:1 7:-0.942857 8:0.166667 9:-1 10:-0.96875 
32768 1:0.5 2:1 3:-1 4:-0.999929 5:-0.994361 6:0.951807 7:1 8:-0.333333 9:-1 10:-1 
32768 1:1 2:-1 3:-1 4:-0.999941 5:-0.95935 6:1 7:-0.0285714 8:0.333333 9:-1 10:-1 
32768 1:0.5 2:-1 3:-1 4:-0.99999 5:-0.9971 6:0.951807 7:-0.942857 8:0.166667 9:-1 10:-1 
32768 1:-0.5 2:-1 3:-1 4:-0.999985 5:-0.996748 6:0.951807 7:-1 8:-0.5 9:-1 10:-1 
32768 1:-0.5 2:-1 3:-1 4:-0.999971 5:-0.997613 6:1 7:-1 8:0.333333 9:1 10:-1 
32768 1:-0.5 2:-1 3:-1 4:-0.999992 5:-0.998518 6:1 7:0.657143 8:-0.333333 9:-1 10:0.666667 
32768 1:-0.5 2:1 3:1 4:-0.999575 5:-0.922385 6:1 7:0.2 8:0.5 9:1 10:-1 
32768 1:-0.5 2:1 3:-1 4:-0.989053 5:-0.985327 6:1 7:-1 8:0.5 9:-1 10:-0.939394 
32768 1:-0.5 2:-1 3:-1 4:-0.999734 5:-0.941909 6:1 7:-1 8:0.333333 9:-1 10:-1 
32768 1:1 2:1 3:-1 4:-0.999987 5:-0.999525 6:0.951807 7:-0.942857 8:-0.5 9:-1 10:-1 
32768 1:-0.5 2:-1 3:-1 4:-0.999863 5:-0.996843 6:0.951807 7:-0.0285714 8:0.166667 9:1 10:-1 
32768 1:-0.5 2:-1 3:1 4:-0.999987 5:-0.998233 6:0.951807 7:-0.485714 8:-0.333333 9:-1 10:-1 
32768 1:-0.5 2:1 3:-1 4:-0.99967 5:-0.991169 6:0.951807 7:-1 8:0.5 9:1 10:-0.833333 
32768 1:1 2:-1 3:-1 4:-0.999958 5:-0.989437 6:1 7:-1 8:0.333333 9:1 10:-1 
32768 1:1 2:1 3:-1 4:-0.999538 5:-0.976882 6:0.951807 7:-0.257143 8:0.5 9:1 10:-1 
32768 1:-0.5 2:1 3:1 4:-0.999965 5:-0.988829 6:0.951807 7:-0.542857 8:0.5 9:-1 10:-1 
32768 1:-0.5 2:-1 3:-1 4:-0.999982 5:-0.998141 6:0.951807 7:0.657143 8:0.166667 9:-1 10:-1 
32768 1:1 2:-1 3:1 4:-0.999911 5:-0.976325 6:1 7:-1 8:0.5 9:-1 10:-1 
32768 2:-1 3:-1 4:-0.999578 5:-0.995105 6:1 7:-0.0285714 8:0.333333 9:1 10:-1 
32768 1:1 2:-1 3:-1 4:-0.999996 5:-0.997951 6:1 7:-0.942857 8:-0.166667 9:-1 10:-1 
32768 1:1 2:1 3:-1 4:-0.960221 5:-0.963659 6:1 7:0.771429 8:0.666667 9:1 10:-0.831776 
32768 1:0.5 2:-1 3:-1 4:-0.999994 5:-0.992382 6:0.951807 7:0.714286 8:0.166667 9:-1 10:-1 
32768 1:1 2:-1 3:-1 4:-0.999768 5:-0.995823 6:1 7:-1 8:0.5 9:1 10:-1 
32768 1:1 2:1 3:1 4:-0.976631 5:-0.980466 6:1 7:-0.657143 8:0.333333 9:1 10:-0.787234 
32768 1:1 2:-1 3:-1 4:-0.999935 5:-0.980983 6:1 7:-0.142857 8:0.166667 9:-1 10:-0.885714 
32768 1:-0.5 2:-1 3:-1 4:-0.999991 5:-0.999645 6:0.951807 7:-0.942857 8:-0.5 9:-1 10:-1 
32768 1:1 2:-1 3:-1 4:-0.999977 5:-0.999379 6:1 7:-0.0285714 9:-1 10:-1 
32768 1:-0.5 2:-1 3:1 4:-0.999768 5:-0.995102 6:0.951807 7:-0.0857143 8:0.5 9:-1 10:-1 
32768 1:1 2:-1 3:-1 4:-0.999842 5:-0.982781 6:1 7:0.314286 8:0.666667 9:1 10:-1 
32768 1:1 2:1 3:-1 4:-0.989989 5:-0.997689 6:1 7:-1 8:0.5 9:-1 10:-0.908223 
32768 1:0.5 2:1 3:-1 4:-0.998142 5:-0.985368 6:1 7:-0.885714 8:0.5 9:1 10:-0.75 
32768 1:-0.5 2:1 3:-1 4:-0.997483 5:-0.982464 6:1 7:-0.0285714 8:0.5 9:1 10:-0.559083 
32768 1:0.5 2:-1 3:-1 4:-0.999967 5:-0.991761 6:1 7:-0.257143 8:0.666667 9:-1 10:-1 
32768 1:1 2:-1 3:1 4:-0.999946 5:-0.979833 6:0.951807 7:-0.371429 8:0.5 9:-1 10:1 
32768 1:-0.5 2:-1 3:-1 4:-0.986367 5:-0.991732 6:0.951807 7:-1 8:0.333333 9:1 10:-1 
32768 1:-0.5 2:1 3:-1 4:-0.998671 5:-0.969773 6:0.951807 7:0.2 8:0.5 9:-1 10:-1 
32768 1:1 2:-1 3:-1 4:-0.999649 5:-0.960888 6:1 7:-1 8:0.666667 9:1 10:-1 
32768 2:1 3:1 4:-0.999824 5:-0.902674 6:0.951807 7:-1 8:0.5 9:-1 10:-1 
32768 1:1 2:1 3:-1 4:-0.999975 5:-0.996495 6:1 7:-0.6 8:-0.333333 9:-1 10:-0.727273 
32768 1:-0.5 2:1 3:-1 4:-0.999689 5:-0.979808 6:0.951807 7:0.2 8:0.333333 9:1 10:-1 
32768 1:-0.5 2:1 3:-1 4:-0.995238 5:-0.97103 6:1 7:-1 8:0.5 9:1 10:-0.875862 
32768 1:-0.5 2:-1 3:-1 4:-0.999989 5:-0.993711 6:1 7:-0.0285714 8:0.166667 9:-1 10:1 
32768 1:1 2:-1 3:1 4:-0.999973 5:-0.99222 6:0.951807 7:-0.6 8:0.5 9:-1 10:-1 
32768 2:1 3:-1 4:-0.999993 5:-0.999497 6:1 7:-0.0285714 9:-1 10:-0.6 
32768 1:0.5 2:-1 3:-1 4:-0.999963 5:-1 6:1 7:-0.0285714 8:0.666667 9:-1 10:-1 
32768 1:-0.5 2:-1 3:-1 4:-0.999702 5:-0.977566 6:1 7:-1 8:0.5 9:1 10:-0.883721 
32768 1:0.5 2:-1 3:-1 4:-0.999998 5:-0.999753 6:0.951807 7:-0.714286 8:-0.5 9:-1 10:-1 
32768 1:0.5 2:1 3:1 4:-0.999941 5:-0.986695 6:0.951807 7:-0.6 9:-1 10:-1 
32768 1:1 2:-1 3:-1 4:-0.999941 5:-0.985928 6:1 7:0.942857 8:0.5 9:-1 10:-1 
32768 1:1 2:1 3:1 4:-0.999986 5:-0.997505 6:0.951807 7:-0.428571 8:-0.166667 9:-1 10:-1 
32768 1:0.5 2:-1 3:-1 4:-0.999861 5:-0.963004 6:1 7:0.828571 8:0.666667 9:-1 10:-0.836943 
32768 1:-0.5 2:-1 3:1 4:-0.999915 5:-0.993917 6:0.951807 7:0.542857 8:0.166667 9:-1 10:-1 
32768 1:-0.5 2:-1 3:-1 4:-0.999994 5:-0.999338 6:1 7:-0.257143 8:-0.5 9:-1 10:-1 
32768 1:-0.5 2:-1 3:-1 4:-0.999431 5:-0.959023 6:1 7:-1 8:0.5 9:-1 10:-0.548387 
32768 1:1 2:1 3:-1 4:-0.98973 5:-0.991916 6:1 7:0.942857 8:0.666667 9:1 10:-0.862816 
32768 2:1 3:1 4:-0.999543 5:-0.955521 6:1 7:-0.714286 8:0.333333 9:-1 10:-1 
32768 1:1 2:1 3:-1 4:-0.99356 5:-0.835023 6:0.951807 7:-1 8:0.666667 9:-1 10:-1 
32768 1:-0.5 2:1 3:-1 4:-0.985164 5:-0.94341 6:1 7:-1 8:0.5 9:1 10:-0.849372 
32768 1:-0.5 2:1 3:1 4:-0.999994 5:-0.997188 6:0.951807 7:-0.371429 8:-0.166667 9:-1 10:-1 
32768 1:-0.5 2:-1 3:-1 4:-0.9999 5:-0.981141 6:0.951807 7:-1 8:0.5 9:-1 10:-1 
32768 1:1 2:1 3:-1 4:-0.999993 5:-0.999987 6:1 7:-0.6 8:0.666667 9:-1 10:-1 
32768 1:-0.5 2:1 3:-1 4:-0.996957 5:-0.936703 6:1 7:-0.942857 8:0.666667 9:1 10:-0.615385 
32768 1:0.5 2:-1 3:-1 4:-0.992994 5:-0.989924 6:1 7:-1 8:0.666667 9:1 10:-0.915493 
32768 1:-0.5 2:1 3:-1 4:-0.999341 5:-0.964343 6:1 7:-0.142857 8:0.666667 9:1 10:-0.6 
32768 1:1 2:-1 3:-1 4:-0.999943 5:-0.985754 6:1 7:0.0857143 8:0.666667 9:-1 10:-1 
32768 1:-0.5 2:1 3:1 4:-0.998978 5:-0.958111 6:1 7:-0.0285714 8:0.666667 9:1 10:-0.571429 
32768 1:-0.5 2:-1 3:-1 4:-0.999994 5:-0.998673 6:1 7:-0.428571 8:-0.5 9:-1 10:-0.583333 
32768 1:-0.5 2:-1 3:-1 4:-0.999949 5:-0.997024 6:1 7:-0.0285714 8:0.166667 9:1 10:-0.6 
11203.69355877404 1:-0.5 2:-1 3:-1 4:-0.999929 5:-0.960806 6:1 7:1 8:0.5 9:-1 10:-0.333333 
32768 1:-0.5 2:-1 3:-1 4:-0.988432 5:-0.995273 6:1 7:0.0285714 8:0.833333 9:-1 10:-0.799242 
32768 1:1 2:-1 3:-1 4:-0.999978 5:-0.999639 6:0.951807 7:-0.2 8:-0.333333 9:-1 10:-1 
32768 1:-0.5 2:1 3:-1 4:-0.946069 5:-0.956557 6:1 7:-1 8:0.666667 9:1 10:-1 
4499.662193490587 1:1 2:1 3:1 4:-0.999725 5:-0.998702 6:1 7:0.6 8:-0.333333 9:1 10:1 
32768 1:-0.5 2:-1 3:1 4:-0.999987 5:-0.995551 6:0.951807 7:0.714286 8:-0.166667 9:-1 10:-1 
32768 1:1 2:-1 3:-1 4:-0.999994 5:-0.993123 6:1 7:-1 8:0.166667 9:-1 10:-1 
32768 1:-0.5 2:1 3:-1 4:-0.985673 5:-0.934107 6:1 7:-0.0285714 8:0.5 9:1 10:-0.695652 
32768 1:-0.5 2:1 3:1 4:-0.994192 5:-0.919842 6:1 7:0.0857143 8:0.666667 9:1 10:-0.512821 
25834.92948104599 1:1 2:1 3:-1 4:-0.99994 5:-0.94726 6:1 7:-0.6 8:0.5 9:-1 10:1 
32768 2:1 3:-1 4:-0.998918 5:-0.984732 6:1 7:-0.0285714 8:0.666667 9:1 10:-0.6 
32768 1:1 2:1 3:-1 4:-0.999991 5:-0.999037 6:1 7:-0.485714 8:-0.166667 9:-1 10:-1 
32768 1:1 2:1 3:-1 4:-0.993597 5:-0.985172 6:1 7:-0.942857 8:0.166667 9:-1 10:-1 
32768 1:-0.5 2:-1 3:-1 4:-0.999922 5:-0.993091 6:1 7:0.885714 8:0.666667 9:-1 10:-0.555556 
32768 1:-0.5 2:-1 3:-1 4:-0.998377 5:-0.997746 6:1 7:-1 8:0.166667 9:1 10:-0.851852 
32768 1:0.5 2:-1 3:-1 4:-0.999949 5:-0.990384 6:0.951807 7:-0.371429 8:0.5 9:-1 10:-1 
32768 1:-0.5 2:-1 3:-1 4:-0.998974 5:-0.989418 6:0.951807 7:-0.6 8:0.5 9:1 10:-1 
32768 1:1 2:-1 3:-1 4:-0.999989 5:-0.996707 6:0.951807 7:-0.0285714 8:0.333333 9:-1 10:-1 
32768 1:-0.5 2:-1 3:-1 4:-0.999492 5:-0.999801 6:1 7:-0.657143 8:0.5 9:1 10:-1 
32768 1:1 2:1 3:-1 4:-0.999964 5:-0.994015 6:0.951807 7:-0.942857 9:-1 10:-1 
32768 1:-0.5 2:1 3:-1 4:-0.9937 5:-0.884518 6:1 7:-1 8:0.5 9:1 10:-0.73913 
32768 1:1 2:-1 3:-1 4:-0.999991 5:-0.998664 6:1 7:-0.885714 8:0.166667 9:-1 10:-1 
32768 1:0.5 2:1 3:1 4:-0.999886 5:-0.992116 6:0.951807 7:0.542857 8:0.333333 9:-1 10:-1 
32768 1:1 2:-1 3:-1 4:-0.999946 5:-0.986359 6:0.951807 7:0.942857 8:0.333333 9:-1 10:-1 
32768 1:1 2:-1 3:-1 4:-0.999983 5:-0.999981 6:0.951807 7:-0.0285714 8:0.5 9:-1 10:-1 
32768 1:-0.5 2:-1 3:-1 4:-0.99589 5:-0.983351 6:1 7:0.828571 8:0.5 9:1 10:-0.698113 
32768 1:-0.5 2:1 3:-1 4:-0.999871 5:-0.977594 6:0.951807 7:-0.942857 8:0.5 9:1 10:-1 
32768 1:0.5 2:1 3:-1 4:-0.999952 5:-0.971201 6:0.951807 7:-0.942857 8:0.333333 9:-1 10:-1 
12225.87026436217 1:1 2:-1 3:-1 4:-0.99995 5:-0.993629 6:0.951807 7:-0.371429 9:-1 10:-1 
32768 1:-0.5 2:-1 3:-1 4:-0.999982 5:-0.995577 6:1 7:-0.942857 8:0.166667 9:-1 10:-1 
32768 1:0.5 2:-1 3:-1 4:-0.999928 5:-0.939658 6:0.951807 7:-0.0285714 8:0.5 9:-1 10:-1 
32768 1:-0.5 2:-1 3:-1 4:-0.999994 5:-0.998376 6:1 7:0.942857 8:0.666667 9:-1 10:-0.666667 
32768 1:1 2:-1 3:-1 4:-0.998523 5:-0.998607 6:1 7:-0.0285714 8:0.5 9:1 10:-1 
32768 1:0.5 2:1 3:1 4:-0.998554 5:-0.992648 6:1 7:-1 8:0.333333 9:1 10:-1 
32768 2:1 3:-1 4:-0.998694 5:-0.99892 6:1 7:-0.0857143 8:-0.5 9:1 10:-1 
32768 1:1 2:1 3:-1 4:-0.998639 5:-0.981552 6:0.951807 7:0.657143 8:0.333333 9:-1 10:-1 
32768 1:-0.5 2:1 3:-1 4:-0.999515 5:-0.901699 6:1 7:-0.942857 8:0.666667 9:-1 10:-0.933333 
32768 1:1 2:1 3:-1 4:-0.96193 5:-0.985656 6:1 7:-1 8:0.666667 9:1 10:-1 
32768 1:-0.5 2:-1 3:-1 4:-0.999932 5:-0.983142 6:1 7:-0.657143 8:0.5 9:-1 10:-1 
32768 1:0.5 2:-1 3:-1 4:-0.999972 5:-0.985558 6:0.951807 7:-0.0285714 8:0.5 9:-1 10:-1 
32768 1:1 2:-1 3:-1 4:-0.999989 5:-0.993262 6:1 7:-1 9:-1 10:-1 
32768 1:1 2:1 3:1 4:-0.998935 5:-0.994525 6:1 7:0.771429 8:0.333333 9:1 10:-0.904762 
32768 1:1 2:1 3:-1 4:-0.998852 5:-0.991755 6:0.951807 7:-0.771429 8:0.333333 9:-1 10:-1 
32768 1:1 2:1 3:-1 4:-0.999931 5:-0.994066 6:1 7:-0.0285714 8:0.666667 9:-1 10:-1 
32768 1:0.5 2:1 3:1 4:-0.999959 5:-0.998797 6:0.951807 7:-0.0285714 8:0.666667 9:-1 10:-1 
32768 1:1 2:-1 3:-1 4:-0.998314 5:-0.982259 6:1 7:0.714286 8:0.666667 9:-1 10:-1 
32768 1:-0.5 2:-1 3:-1 4:-0.995841 5:-0.991653 6:1 7:-0.142857 8:0.5 9:1 10:-1 
32768 1:1 2:-1 3:-1 4:-0.999995 5:-0.99988 6:0.951807 7:-0.0285714 8:-0.333333 9:-1 10:-1 
32768 1:1 2:-1 3:-1 4:-0.99991 5:-0.998208 6:0.951807 7:0.714286 8:0.5 9:-1 10:-1 
32768 1:0.5 2:-1 3:-1 4:-0.999944 5:-0.995782 6:0.951807 7:-0.0285714 8:0.5 9:-1 10:-1 
32768 1:0.5 2:-1 3:-1 4:-0.999937 5:-0.997062 6:1 7:-0.0285714 8:0.5 9:-1 10:-1 
32768 1:-0.5 2:1 3:-1 4:-0.999859 5:-0.994266 6:1 7:-0.0285714 9:-1 10:-1 
32768 1:0.5 2:-1 3:1 4:-0.999877 5:-0.989579 6:1 7:0.542857 8:0.5 9:-1 10:-1 
32768 1:1 2:1 3:-1 4:-0.999998 5:-0.999671 6:1 7:0.657143 8:-0.333333 9:-1 10:-1 
32768 1:0.5 2:-1 3:-1 4:-0.999776 5:-0.988202 6:1 7:-1 8:0.5 9:1 10:-0.928571 
32768 1:0.5 2:-1 3:-1 4:-0.999992 5:-0.997464 6:0.951807 7:-0.0285714 8:0.5 9:-1 10:-1 
32768 1:-0.5 2:-1 3:-1 4:-0.999686 5:-0.996188 6:1 7:-0.828571 8:0.5 9:1 10:-1 
32768 1:0.5 2:1 3:1 4:-0.999592 5:-0.945455 6:0.951807 7:0.314286 8:0.333333 9:-1 10:-1 
32768 1:-0.5 2:1 3:1 4:-0.999854 5:-0.984231 6:1 7:-0.142857 8:0.5 9:-1 10:-1 
32768 2:1 3:-1 4:-0.936706 5:-0.986223 6:0.951807 7:-0.0285714 8:0.333333 9:-1 10:-0.833333 
32768 1:1 2:-1 3:-1 4:-0.999982 5:-0.999465 6:0.951807 7:1 8:0.333333 9:-1 10:-1 
32768 1:1 2:1 3:-1 4:-0.98724 5:-0.956509 6:0.951807 7:-0.771429 8:0.666667 9:1 10:-1 
32768 1:0.5 2:-1 3:-1 4:-0.999959 5:-0.987803 6:0.951807 7:0.942857 8:0.5 9:-1 10:-1 
32768 1:1 2:1 3:-1 4:-0.998825 5:-0.993784 6:0.951807 7:-0.0285714 8:0.166667 9:1 10:-1 
32768 1:-0.5 2:-1 3:-1 4:-0.999936 5:-0.979915 6:1 7:-0.142857 8:0.666667 9:1 10:-0.777778 
32768 1:0.5 2:-1 3:-1 4:-0.999982 5:-0.999373 6:0.951807 7:-0.0285714 8:0.166667 9:-1 10:-1 
32768 1:1 2:1 3:1 4:-0.995446 5:-0.948758 6:1 7:-1 8:0.666667 9:1 10:-0.95 
32768 1:-0.5 2:-1 3:-1 4:-0.999972 5:-0.975647 6:1 7:-0.0285714 8:0.5 9:-1 10:-1 
32768 1:1 2:1 3:-1 4:-0.999989 5:-0.99937 6:0.951807 7:-0.0285714 8:-0.166667 9:-1 10:-1 
13615.33779717295 1:1 2:-1 3:1 4:-0.999993 5:-0.999509 6:1 7:-0.885714 9:-1 
32768 1:-0.5 2:-1 3:-1 4:-0.999949 5:-0.999573 6:1 7:-0.0285714 8:0.5 9:-1 10:-1 
32768 1:0.5 2:-1 3:-1 4:-0.991394 5:-0.999424 6:1 7:-0.942857 8:0.166667 9:-1 10:-0.916667 
32768 1:-0.5 2:-1 3:-1 4:-0.999937 5:-0.995561 6:1 7:0.0857143 8:0.166667 9:-1 10:-1 
32768 1:-0.5 2:1 3:-1 4:-0.999613 5:-0.988224 6:1 7:-0.0285714 8:0.5 9:1 10:-0.545455 
32768 1:-0.5 2:-1 3:-1 4:-0.999955 5:-0.989101 6:1 7:-1 8:0.333333 9:1 10:-1 
32768 1:1 2:-1 3:-1 4:-0.999986 5:-0.998657 6:1 7:-0.371429 8:-0.333333 9:-1 10:-0.666667 
32768 1:-0.5 2:1 3:-1 4:-0.995625 5:-0.995282 6:1 7:-0.0285714 8:0.333333 9:1 10:-0.672727 
32768 1:1 2:1 3:-1 4:-0.99996 5:-0.990238 6:0.951807 7:-0.257143 8:0.333333 9:-1 10:-1 
32768 1:-0.5 2:1 3:-1 4:-0.999952 5:-0.991128 6:1 7:-0.314286 8:0.333333 9:1 10:-1 
32768 1:0.5 2:1 3:-1 4:-0.99994 5:-0.994722 6:0.951807 7:-0.0285714 8:0.333333 9:-1 10:-0.9375 
32768 1:1 2:-1 3:-1 4:-0.999971 5:-0.991406 6:1 7:-0.942857 8:0.5 9:-1 10:-0.666667 
32768 1:-0.5 2:-1 3:-1 4:-0.999956 5:-0.998825 6:1 7:-1 8:0.333333 9:1 10:-1 
32768 1:0.5 2:-1 3:-1 4:-0.999995 5:-0.999582 6:0.951807 7:-0.885714 9:-1 10:-1 
32768 1:1 2:1 3:-1 4:-0.991872 5:-0.984684 6:0.951807 7:-1 8:0.666667 9:1 10:-1 
32768 1:-0.5 2:1 3:-1 4:-0.993294 5:-0.961199 6:1 7:-0.142857 8:0.5 9:-1 10:-1 
32768 1:1 2:-1 3:-1 4:-0.999842 5:-0.928097 6:1 7:-1 8:0.5 9:1 10:-1 
32768 1:1 2:1 3:1 4:-0.993089 5:-0.956015 6:1 7:-0.0285714 8:0.5 9:1 10:-0.631579 
32768 1:-0.5 2:-1 3:-1 4:-0.998947 5:-0.975356 6:0.951807 7:1 8:0.666667 9:-1 10:-1 
32768 1:1 2:-1 3:-1 4:-0.999955 5:-0.997432 6:1 7:-1 8:0.333333 9:-1 10:-1 
32768 1:1 2:-1 3:1 4:-0.999994 5:-0.997866 6:0.951807 7:-0.142857 9:-1 10:-1 
32768 1:1 2:1 3:-1 4:-0.99999 5:-0.997518 6:1 7:-0.0285714 8:0.333333 9:-1 10:-1 
32768 1:1 2:1 3:-1 4:-0.999988 5:-0.999965 6:1 7:-0.0285714 8:0.166667 9:-1 10:-1 
32768 1:1 2:1 3:1 4:-0.999992 5:-0.997894 6:0.951807 7:-0.142857 8:-0.166667 9:-1 10:-1 
28383.87184600272 2:1 3:-1 4:-0.966131 5:-0.968212 6:0.951807 7:-1 8:0.333333 9:1 10:-0.810651 
32768 1:1 2:1 3:-1 4:-0.99997 5:-0.99019 6:1 7:-0.0285714 8:0.333333 9:-1 10:-1 
32768 1:-0.5 2:-1 3:-1 4:-0.999984 5:-0.995333 6:1 7:-0.942857 8:0.333333 9:-1 10:-1 
32768 1:1 2:-1 3:-1 4:-0.999981 5:-0.999066 6:1 7:-0.0285714 9:-1 10:-1 
32768 1:1 2:-1 3:-1 4:-0.999988 5:-0.998642 6:1 7:-1 8:0.166667 9:-1 10:-1 
32768 1:-0.5 2:1 3:-1 4:-0.999435 5:-0.993252 6:1 7:0.2 8:0.333333 9:-1 10:-1 
32768 1:1 2:-1 3:-1 4:-0.999808 5:-0.997701 6:1 7:-1 8:-0.166667 9:1 10:-1 
32768 1:1 2:1 3:-1 4:-0.999537 5:-0.997062 6:1 7:1 8:0.333333 9:1 10:-0.764706 
32768 1:1 2:-1 3:-1 4:-0.999811 5:-0.991837 6:1 7:-0.942857 8:0.5 9:1 10:-1 
32768 1:-0.5 2:1 3:-1 4:-0.999977 5:-0.998984 6:0.951807 7:-1 8:0.333333 9:-1 10:-1 
32768 1:-0.5 2:1 3:-1 4:-0.999525 5:-0.917249 6:1 7:-0.942857 8:0.166667 9:-1 10:-1 
32768 1:1 2:-1 3:-1 4:-0.99911 5:-0.996653 6:1 7:-0.0285714 8:0.333333 9:1 10:-1 
32768 1:0.5 2:-1 3:-1 4:-0.999937 5:-0.998667 6:0.951807 7:0.657143 8:0.5 9:-1 10:-1 
32768 1:0.5 2:1 3:-1 4:-0.992529 5:-0.976344 6:1 7:-0.942857 8:0.5 9:1 10:-0.809524 
32768 1:1 2:-1 3:-1 4:-0.999992 5:-0.997052 6:0.951807 7:-0.0285714 8:0.166667 9:-1 10:-1 
32768 1:-0.5 2:1 3:1 4:-0.997774 5:-0.966316 6:0.951807 7:0.2 8:0.666667 9:1 10:-0.793103 
32768 1:1 2:1 3:1 4:-0.999203 5:-0.985805 6:0.951807 7:-1 8:0.166667 9:1 10:-0.87013 
32768 1:1 2:-1 3:-1 4:-0.999998 5:-0.999943 6:1 7:-0.371429 9:-1 10:-1 
32768 1:-0.5 2:-1 3:1 4:-0.999963 5:-0.994734 6:0.951807 7:0.371429 8:0.5 9:-1 10:-1 
32768 1:-0.5 2:-1 3:-1 4:-0.999996 5:-0.99855 6:1 7:0.257143 8:-0.166667 9:-1 10:-1 
32768 1:-0.5 2:-1 3:-1 4:-0.999718 5:-0.995564 6:1 7:-0.371429 8:0.166667 9:1 10:-1 
32768 1:-0.5 2:-1 3:-1 4:-0.999833 5:-0.989161 6:0.951807 7:-1 8:0.333333 9:1 10:-1 
32768 1:-0.5 2:1 3:1 4:-0.999988 5:-0.991831 6:1 7:-0.771429 8:0.166667 9:-1 10:-1 
32768 1:1 2:-1 3:-1 4:-0.999987 5:-0.99729 6:1 7:-0.0285714 8:0.333333 9:-1 10:-1 
32768 1:1 2:1 3:-1 4:-0.999694 5:-0.976721 6:1 7:-0.657143 8:0.5 9:1 10:-1 
32768 2:1 3:-1 4:-0.999061 5:-0.994652 6:1 7:-0.0285714 8:0.5 9:-1 10:-0.454545 
32768 1:1 2:1 3:-1 4:-0.992391 5:-0.933863 6:1 7:-0.257143 8:0.666667 9:1 10:-0.934038 
32768 1:1 2:1 3:-1 4:-0.992391 5:-0.933863 6:1 7:-0.257143 8:0.666667 9:1 10:-1 
32768 1:0.5 2:-1 3:-1 4:-0.999383 5:-0.996146 6:0.951807 7:-0.0285714 8:0.166667 9:-1 10:-1 
32768 1:0.5 2:-1 3:-1 4:-0.999904 5:-0.996891 6:1 7:-1 8:0.166667 9:1 10:-1 
32768 2:-1 3:-1 4:-0.99993 5:-0.992407 6:1 7:-0.657143 8:0.333333 9:1 10:-1 
32768 1:-0.5 2:1 3:-1 4:-0.999995 5:-0.998524 6:0.951807 7:0.6 9:-1 10:-1 
125.0498507782938 1:1 2:-1 3:-1 4:-0.998996 5:-0.98919 6:0.951807 7:-0.0285714 8:0.5 9:1 10:-1 
32768 1:-0.5 2:1 3:-1 4:-0.999951 5:-0.99506 6:0.951807 7:-1 8:0.333333 9:1 10:-1 
32768 1:1 2:1 3:-1 4:-0.999992 5:-0.99677 6:1 7:-0.0285714 8:-0.166667 9:-1 10:-1 
32768 1:-0.5 2:-1 3:-1 4:-0.999379 5:-0.996887 6:1 7:-0.0285714 8:0.333333 9:-1 10:-1 
32768 1:-0.5 2:-1 3:1 4:-0.999635 5:-0.999626 6:0.951807 7:-0.771429 8:-0.333333 9:1 10:-1 
32768 1:-0.5 2:-1 3:-1 4:-0.995722 5:-0.997131 6:1 7:-0.942857 8:0.166667 9:1 10:-0.953488 
32768 1:0.5 2:-1 3:-1 4:-0.999997 5:-0.999446 6:0.951807 7:0.6 8:-0.166667 9:-1 10:-1 
32768 1:-0.5 2:1 3:-1 4:-0.998023 5:-0.994072 6:1 7:-0.6 8:0.166667 9:-1 10:-0.357143 
32768 2:-1 3:-1 4:-0.999977 5:-0.996017 6:0.951807 7:0.0285714 8:0.333333 9:-1 10:-1 
32768 1:1 2:1 3:-1 4:-0.999957 5:-0.990878 6:0.951807 7:0.942857 8:0.166667 9:-1 10:-1 
32768 1:1 2:-1 3:-1 4:-0.999985 5:-0.995032 6:1 7:0.314286 8:-0.166667 9:-1 10:-1 
32768 1:-0.5 2:-1 3:-1 4:-0.999943 5:-0.993265 6:0.951807 7:-1 8:0.333333 9:-1 10:-1 
32768 1:-0.5 2:1 3:-1 4:-0.998401 5:-0.953906 6:1 7:-0.828571 8:0.5 9:-1 10:-0.454545 
32768 1:-0.5 2:1 3:1 4:-0.999995 5:-0.999018 6:0.951807 7:-0.314286 9:-1 10:-1 
32768 1:1 2:1 3:-1 4:-0.999987 5:-0.99785 6:0.951807 7:-0.371429 9:-1 10:-1 
32768 2:1 3:-1 4:-0.999078 5:-0.996688 6:1 7:0.657143 8:0.166667 9:1 10:-0.6 
32768 1:-0.5 2:1 3:1 4:-0.999469 5:-0.99748 6:0.951807 7:0.2 8:0.5 9:-1 10:-1 
32768 1:-0.5 2:-1 3:-1 4:-0.999993 5:-0.998284 6:0.951807 7:-1 8:-0.5 9:-1 10:-1 
32768 1:-0.5 2:1 3:1 4:-0.999968 5:-0.999721 6:1 7:-0.0285714 8:0.333333 9:1 10:-1 
32768 1:-0.5 2:-1 3:1 4:-0.999991 5:-0.997046 6:0.951807 7:-0.0285714 8:0.166667 9:-1 10:-1 
32768 1:-0.5 2:-1 3:-1 4:-0.999998 5:-0.999981 6:1 7:1 8:-1 9:-1 10:-1 
32768 1:-0.5 2:1 3:-1 4:-0.999884 5:-0.995833 6:0.951807 7:-0.657143 9:-1 10:-1 
32768 2:1 3:-1 4:-0.999776 5:-0.998714 6:1 7:-1 8:0.333333 9:1 10:-0.87176 
32768 1:-0.5 2:-1 3:-1 4:-0.998943 5:-0.990517 6:1 7:0.2 8:0.5 9:1 10:-1 
32768 1:0.5 2:1 3:-1 4:-0.999338 5:-0.987154 6:0.951807 7:-0.0285714 8:0.5 9:-1 10:-1 
32768 1:1 2:1 3:-1 4:-0.999907 5:-0.986004 6:0.951807 7:-0.142857 8:0.333333 9:1 10:-1 
32768 1:-0.5 2:1 3:-1 4:-0.999994 5:-0.999177 6:0.951807 7:1 8:-0.5 9:-1 10:-1 
32768 1:-0.5 2:1 3:-1 4:-0.977208 5:-0.979083 6:1 7:-0.314286 8:0.666667 9:-1 10:-0.942029 
32768 1:1 2:-1 3:-1 4:-0.999987 5:-0.99577 6:0.951807 7:-0.142857 9:-1 10:-1 
32768 1:-0.5 2:-1 3:-1 4:-0.999966 5:-0.98267 6:1 7:-0.942857 8:0.5 9:-1 10:-1 
32768 1:-0.5 2:1 3:1 4:-0.986949 5:-0.959198 6:1 7:-0.314286 8:0.5 9:1 10:-0.704918 
32768 1:1 2:1 3:1 4:-0.998216 5:-0.986096 6:1 7:-1 8:0.333333 9:1 10:-1 
32768 1:1 2:1 3:-1 4:-0.999983 5:-0.998144 6:1 7:0.657143 8:-0.333333 9:-1 10:-1 
32768 1:1 2:1 3:-1 4:-0.999968 5:-0.998594 6:0.951807 7:-0.2 8:0.166667 9:-1 10:-1 
32768 1:1 2:-1 3:-1 4:-0.999828 5:-0.997799 6:1 7:-0.0285714 8:0.166667 9:-1 10:-1 
32768 1:-0.5 2:1 3:1 4:-0.999618 5:-0.991223 6:1 7:-0.885714 8:0.166667 9:1 
32768 1:-0.5 2:-1 3:-1 4:-0.99999 5:-0.995941 6:0.951807 7:-0.428571 8:-0.166667 9:-1 10:-1 
32768 1:1 2:1 3:-1 4:-0.958405 5:-0.964504 6:1 7:0.657143 8:0.5 9:-1 10:-0.805195 
32768 1:-0.5 2:1 3:1 4:-0.975324 5:-0.956677 6:1 7:0.657143 8:0.5 9:1 10:-0.960784 
32768 1:-0.5 2:-1 3:-1 4:-0.999964 5:-0.989867 6:0.951807 7:0.0285714 8:0.333333 9:-1 10:-1 
32768 1:-0.5 2:1 3:1 4:-0.999986 5:-0.984621 6:0.951807 7:-0.257143 8:-0.333333 9:-1 10:-1 
32768 1:0.5 2:-1 3:1 4:-0.999935 5:-0.989209 6:0.951807 7:0.657143 8:-0.333333 9:-1 10:-1 
32768 1:-0.5 2:1 3:-1 4:-0.984725 5:-0.992499 6:1 7:-0.942857 9:-1 10:-1 
32768 1:1 2:1 3:-1 4:-0.998972 5:-0.99431 6:1 7:-0.428571 9:-1 10:-1 
32768 1:1 2:-1 3:-1 4:-0.999999 5:-0.999706 6:1 7:-0.142857 8:-0.666667 9:-1 10:-1 
32768 1:1 2:1 3:-1 4:-0.999976 5:-0.99557 6:0.951807 7:-0.428571 8:-0.166667 9:-1 10:-1 
32768 1:1 2:1 3:-1 4:-0.999988 5:-0.99786 6:0.951807 7:0.714286 9:-1 10:-1 
32768 1:1 2:1 3:-1 4:-0.999935 5:-0.99115 6:1 7:-0.0285714 8:0.166667 9:-1 10:-1 
32768 1:1 2:1 3:-1 4:-0.999413 5:-0.99729 6:0.951807 7:-0.0285714 8:-0.166667 9:-1 10:-1 
32768 1:-0.5 2:1 3:-1 4:-0.966641 5:-0.986115 6:0.951807 7:-1 8:0.333333 9:-1 10:-0.9 
32768 1:1 2:1 3:-1 4:-0.999995 5:-0.998562 6:0.951807 7:-0.0285714 8:-0.166667 9:-1 10:-1 
32768 1:-0.5 2:1 3:-1 4:-0.999968 5:-0.999012 6:0.951807 7:-0.0285714 8:0.166667 9:-1 10:-1 
32768 1:-0.5 2:1 3:-1 4:-0.98324 5:-0.969564 6:1 7:0.714286 8:0.666667 9:-1 10:-0.714286 
32768 1:1 2:1 3:-1 4:-0.996711 5:-0.99171 6:0.951807 7:-1 8:-0.166667 9:-1 10:-1 
32768 1:-0.5 2:-1 3:1 4:-0.999963 5:-0.998629 6:1 7:1 8:-0.166667 9:1 10:-1 
32768 2:-1 3:-1 4:-0.995458 5:-0.995871 6:1 7:-1 8:0.333333 9:1 10:-0.708333 
32768 2:1 3:-1 4:-0.999956 5:-0.999003 6:1 7:-0.0285714 8:-0.166667 9:1 10:-1 
32768 1:0.5 2:-1 3:1 4:-0.999988 5:-0.997549 6:0.951807 7:-0.142857 8:0.166667 9:-1 10:-1 
32768 1:-0.5 2:-1 3:-1 4:-0.995027 5:-0.948273 6:1 7:-0.0285714 8:0.5 9:1 10:-0.714286 
32768 1:0.5 2:-1 3:-1 4:-0.999992 5:-0.997834 6:0.951807 7:-0.0285714 9:-1 10:-1 
32768 1:-0.5 2:1 3:1 4:-0.999968 5:-0.977623 6:0.951807 7:-0.0285714 8:-0.333333 9:-1 10:-1 
32768 1:1 2:-1 3:-1 4:-0.99995 5:-0.997448 6:1 7:0.657143 9:-1 10:-1 
32768 1:1 2:-1 3:-1 4:-0.999969 5:-0.997834 6:1 7:-0.0285714 8:0.333333 9:-1 10:-1 
32768 1:-0.5 2:-1 3:-1 4:-0.999962 5:-0.99343 6:1 7:-0.0285714 9:-1 10:-1 
32768 1:1 2:1 3:-1 4:-0.999998 5:-0.999842 6:0.951807 7:-0.142857 8:-0.666667 9:-1 10:-1 
32768 1:1 2:-1 3:1 4:-0.999997 5:-0.999139 6:1 7:-0.0285714 8:-0.333333 9:-1 10:-1 
32768 1:1 2:1 3:-1 4:-0.999981 5:-0.997992 6:0.951807 7:-0.828571 8:0.166667 9:-1 10:-1 
32768 1:1 2:1 3:-1 4:-0.999977 5:-0.999278 6:0.951807 7:-0.0285714 8:0.166667 9:-1 10:-1 
32768 1:1 2:1 3:-1 4:-0.999651 5:-0.997055 6:0.951807 7:0.2 8:0.333333 9:-1 10:-1 
32768 1:-0.5 2:1 3:1 4:-0.999789 5:-0.983763 6:1 7:-0.142857 8:0.166667 9:1 10:-1 
32768 1:1 2:1 3:-1 4:-0.999975 5:-0.999091 6:0.951807 7:0.942857 8:0.166667 9:-1 10:-1 
32768 1:-0.5 2:1 3:-1 4:-0.999305 5:-0.994636 6:1 7:0.2 8:0.333333 9:-1 10:-0.666667 
32768 1:-0.5 2:-1 3:1 4:-0.99999 5:-0.999481 6:0.951807 7:-1 8:0.5 9:-1 10:-1 
32768 1:-0.5 2:-1 3:-1 4:-0.999992 5:-0.995117 6:0.951807 7:-0.485714 8:-0.166667 9:-1 10:-1 
32768 1:-0.5 2:1 3:1 4:-0.999958 5:-0.991581 6:0.951807 7:-0.371429 9:-1 10:-1 
32768 1:0.5 2:-1 3:-1 4:-1 5:-0.999842 6:0.951807 7:-0.485714 8:-0.833333 9:-1 10:-1 
32768 1:1 2:-1 3:-1 4:-0.999998 5:-0.999398 6:0.951807 7:-0.0285714 8:-0.166667 9:-1 10:-1 
32768 1:-0.5 2:1 3:-1 4:-0.999553 5:-0.986365 6:1 7:-0.0285714 8:0.333333 9:-1 10:-0.481481 
32768 1:-0.5 2:1 3:-1 4:-0.99997 5:-0.996286 6:0.951807 7:0.0857143 8:0.166667 9:-1 10:-1 
32768 1:-0.5 2:-1 3:-1 4:-0.999942 5:-0.99748 6:1 7:-1 8:0.166667 9:-1 10:-0.851852 
32768 1:-0.5 2:-1 3:-1 4:-0.999686 5:-0.810424 6:1 7:0.942857 8:0.5 9:-1 10:-0.802469 
32768 1:1 2:1 3:-1 4:-0.996807 5:-0.986416 6:1 7:0.714286 8:0.5 9:-1 10:-0.869565 
32768 1:1 2:1 3:-1 4:-0.999936 5:-0.998167 6:0.951807 7:-1 9:-1 10:-1 
32768 1:-0.5 2:1 3:-1 4:-0.998137 5:-0.993778 6:1 7:0.657143 9:1 10:-1 
32768 1:0.5 2:1 3:-1 4:-0.955065 5:-0.991508 6:1 7:-1 8:0.5 9:-1 10:-0.8 
32768 1:1 2:-1 3:-1 4:-0.999988 5:-0.999497 6:1 7:0.542857 8:-0.166667 9:-1 10:-1 
32768 1:1 2:1 3:-1 4:-0.999978 5:-0.997448 6:0.951807 7:-0.142857 8:0.333333 9:-1 10:-1 
32768 1:-0.5 2:-1 3:-1 4:-0.999784 5:-0.992524 6:0.951807 7:-0.942857 8:0.166667 9:1 10:-1 
32768 1:1 2:-1 3:-1 4:-0.999987 5:-0.998914 6:0.951807 7:0.942857 9:-1 10:-1 
32768 1:0.5 2:1 3:-1 4:-0.994463 5:-0.961037 6:1 7:0.942857 8:0.5 9:1 10:-0.89759 
32768 1:1 2:-1 3:-1 4:-0.998705 5:-0.999712 6:1 7:1 8:-0.333333 9:-1 10:-0.942721 
32768 1:1 2:1 3:-1 4:-0.999968 5:-0.995732 6:0.951807 7:0.6 8:0.166667 9:-1 10:-1 
32768 1:1 2:-1 3:-1 4:-0.998693 5:-0.999376 6:1 7:-0.142857 8:-0.166667 9:1 10:-1 
32768 1:1 2:-1 3:-1 4:-0.999991 5:-0.99589 6:0.951807 7:0.714286 8:-0.166667 9:-1 10:-1 
32768 1:1 2:1 3:-1 4:-0.999992 5:-0.998838 6:1 7:0.6 8:-0.333333 9:-1 10:-1 
32768 1:1 2:1 3:-1 4:-0.999983 5:-0.99469 6:0.951807 7:0.657143 8:-0.333333 9:-1 10:-1 
32768 1:0.5 2:1 3:1 4:-0.999912 5:-0.979941 6:1 7:0.657143 8:0.166667 9:1 10:-1 
32768 1:1 2:1 3:-1 4:-0.999958 5:-0.983408 6:0.951807 7:0.657143 8:0.166667 9:-1 10:-1 
32768 1:-0.5 2:1 3:-1 4:-0.999591 5:-0.998046 6:0.951807 7:0.2 9:1 10:-1 
32768 1:-0.5 2:1 3:-1 4:-0.987771 5:-0.981226 6:0.951807 7:-0.942857 8:0.333333 9:1 10:-1 
32768 1:0.5 2:-1 3:-1 4:-0.999982 5:-0.99786 6:0.951807 7:-0.485714 9:-1 10:-1 
32768 1:-0.5 2:1 3:1 4:-0.999997 5:-0.99981 6:0.951807 7:-0.0285714 8:-0.666667 9:-1 10:-1 
32768 2:1 3:-1 4:-0.999959 5:-0.991618 6:1 7:-0.0285714 8:-0.333333 9:1 10:-0.714286 
32768 1:-0.5 2:-1 3:-1 4:-0.99987 5:-0.999892 6:1 7:0.314286 9:-1 10:-1 
32768 1:-0.5 2:1 3:1 4:-0.994568 5:-0.938448 6:1 7:0.2 8:0.166667 9:-1 10:-0.813953 
32768 1:1 2:1 3:-1 4:-0.999996 5:-0.999972 6:1 7:-0.314286 8:-0.5 9:-1 10:-1 
21280.75673348053 1:1 2:-1 3:-1 4:-0.999974 5:-0.992515 6:0.951807 7:0.657143 8:0.166667 9:-1 10:-1 
32768 1:-0.5 2:-1 3:-1 4:-0.99995 5:-0.998401 6:0.951807 7:0.657143 8:0.166667 9:-1 10:-1 
32768 1:1 2:-1 3:-1 4:-0.998727 5:-0.991967 6:1 7:-1 8:0.166667 9:1 10:-1 
32768 1:-0.5 2:-1 3:-1 4:-0.999972 5:-0.99412 6:0.951807 7:-0.142857 9:-1 10:-1 
32768 1:1 2:-1 3:-1 4:-0.999974 5:-0.999208 6:1 7:-0.0285714 9:-1 10:-1 
32768 1:-0.5 2:-1 3:-1 4:-0.999986 5:-0.998901 6:0.951807 7:-1 8:-0.5 9:-1 10:-1 
32768 1:0.5 2:-1 3:-1 4:-0.998831 5:-0.995295 6:0.951807 7:-0.0285714 8:0.333333 9:1 10:-1 
32768 1:-0.5 2:-1 3:-1 4:-0.999988 5:-0.999446 6:1 7:0.0285714 8:-0.5 9:-1 10:-1 
32768 2:1 3:-1 4:-0.951777 5:-0.885677 6:0.951807 7:0.942857 8:0.333333 9:-1 10:-0.876289 
32768 1:-0.5 2:1 3:1 4:-0.999997 5:-0.999611 6:0.951807 7:0.6 8:-0.5 9:-1 10:-1 
32768 1:-0.5 2:1 3:-1 4:-0.999058 5:-0.993351 6:1 7:-1 8:0.333333 9:-1 10:-0.619048 
32768 2:1 3:-1 4:-0.936454 5:-0.966338 6:0.951807 7:-0.314286 8:0.5 9:-1 10:-0.833333 
32768 1:-0.5 2:1 3:-1 4:-0.971047 5:-0.990726 6:0.951807 7:0.942857 9:-1 10:-0.957447 
32768 1:-1 2:-1 3:1 4:-0.999995 5:-0.995238 6:0.951807 7:-0.771429 8:-0.5 9:-1 10:-1 
32768 1:1 2:1 3:-1 4:-0.999982 5:-0.999246 6:0.951807 7:-0.0285714 8:-0.166667 9:-1 10:-1 
32768 2:1 3:-1 4:-0.999973 5:-0.996482 6:1 7:-0.2 8:-0.166667 9:-1 10:-0.888889 
32768 1:1 2:1 3:-1 4:-0.99985 5:-0.995523 6:0.951807 7:-0.428571 8:-0.333333 9:1 10:-1 
32768 1:-0.5 2:-1 3:-1 4:-0.999969 5:-0.99652 6:0.951807 7:-0.0285714 8:0.166667 9:-1 10:-1 
32768 1:-0.5 2:1 3:-1 4:-0.9977 5:-0.994288 6:1 7:-1 8:0.333333 9:1 10:-0.857143 
32768 1:1 2:1 3:-1 4:-0.998174 5:-0.984063 6:1 7:-0.6 8:0.333333 9:1 10:-1 
32768 1:1 2:-1 3:-1 4:-0.999988 5:-0.999136 6:1 7:-0.428571 9:-1 10:-1 
32768 1:-0.5 2:1 3:-1 4:-0.999982 5:-0.997916 6:0.951807 7:-0.0285714 8:-0.333333 9:-1 10:-1 
32768 1:-0.5 2:1 3:-1 4:-0.999304 5:-0.998255 6:0.951807 7:-0.0285714 8:-0.166667 9:-1 10:-1 
32768 2:1 3:-1 4:-0.991783 5:-0.987619 6:0.951807 7:-0.942857 8:0.333333 9:-1 10:-1 
32768 1:1 2:-1 3:-1 4:-0.999995 5:-0.999604 6:1 7:-0.0285714 8:-0.166667 9:-1 10:-1 
32768 1:-0.5 2:-1 3:-1 4:-0.999988 5:-0.998227 6:0.951807 7:0.657143 9:1 10:-1 
32768 1:1 2:1 3:-1 4:-0.999997 5:-0.99936 6:0.951807 7:0.0857143 8:-0.166667 9:-1 10:-1 
32768 1:0.5 2:-1 3:1 4:-0.999999 5:-0.99955 6:0.951807 7:-0.714286 8:-0.666667 9:-1 10:-1 
32768 1:0.5 2:1 3:-1 4:-0.981248 5:-0.992933 6:0.951807 7:-0.314286 8:0.333333 9:-1 10:-0.857143 
32768 1:1 2:1 3:-1 4:-0.999297 5:-0.994158 6:1 7:-0.942857 8:0.166667 9:-1 10:-1 
32768 1:-0.5 2:1 3:-1 4:-0.998419 5:-0.997888 6:1 7:-0.428571 8:-0.166667 9:-1 10:-1 
32768 2:-1 3:-1 4:-0.999987 5:-0.997571 6:1 7:1 9:-1 10:-1 
32768 1:-0.5 2:1 3:1 4:-0.999982 5:-0.999398 6:0.951807 7:-0.0285714 8:-0.333333 9:-1 10:-1 
32768 1:-0.5 2:1 3:1 4:-0.999996 5:-0.999892 6:0.951807 7:-0.0285714 8:-0.666667 9:-1 10:-1 
32768 1:-0.5 2:1 3:-1 4:-0.996223 5:-0.970923 6:1 7:-0.828571 9:-1 10:-1 
32768 1:-0.5 2:-1 3:-1 4:-0.999967 5:-0.996558 6:0.951807 7:0.0285714 9:-1 10:-1 
32768 1:1 2:-1 3:-1 4:-0.999996 5:-0.999338 6:0.951807 7:-0.142857 8:-0.333333 9:-1 10:-1 
32768 1:0.5 2:-1 3:-1 4:-1 5:-0.999965 6:0.951807 7:0.657143 8:-0.833333 9:-1 10:-1 
32768 1:0.5 2:-1 3:-1 4:-0.999999 5:-0.999899 6:0.951807 7:-0.2 8:-0.666667 9:-1 10:-1 
32768 2:-1 3:-1 4:-0.999996 5:-0.998135 6:0.951807 7:-0.942857 9:-1 10:-1 
32768 1:1 2:1 3:-1 4:-0.999961 5:-0.991644 6:1 7:-1 9:-1 10:-0.615385 
32768 1:0.5 2:-1 3:-1 4:-0.999998 5:-0.999775 6:0.951807 7:-1 8:-0.166667 9:-1 10:-1 
32768 1:-0.5 2:1 3:-1 4:-0.999688 5:-0.991391 6:0.951807 7:-0.0285714 8:-0.166667 9:-1 10:-1 
32768 1:1 2:1 3:-1 4:-0.999972 5:-0.989313 6:0.951807 7:-0.0285714 8:0.166667 9:-1 10:-1 
32768 1:-0.5 2:1 3:-1 4:-0.373973 5:-0.959742 6:0.879518 7:-0.942857 8:0.5 9:-1 10:-0.806452 
32768 1:-0.5 2:-1 3:-1 4:-0.999986 5:-0.995108 6:0.951807 7:-0.942857 9:-1 10:-1 
31970.16528773864 1:-0.5 2:-1 3:-1 4:-0.999995 5:-0.997768 6:1 7:-1 9:-1 10:-0.333333 
32768 1:0.5 2:-1 3:-1 4:-0.999993 5:-0.999633 6:0.951807 7:-0.942857 8:-0.166667 9:-1 10:-1 
32768 1:1 2:1 3:-1 4:-0.999592 5:-0.985479 6:0.951807 7:-0.0285714 8:0.166667 9:-1 10:-1 
32768 1:0.5 2:-1 3:-1 4:-0.999986 5:-0.996761 6:0.951807 7:-0.942857 8:-0.333333 9:-1 10:-1 
32768 1:-0.5 2:-1 3:1 4:-0.999978 5:-0.98894 6:0.951807 7:1 8:-0.166667 9:-1 10:-1 
32768 2:-1 3:-1 4:-0.999988 5:-0.999155 6:0.951807 7:0.6 8:-0.333333 9:-1 10:-1 
32768 1:1 2:1 3:-1 4:-0.975725 5:-0.996678 6:1 7:-0.142857 8:0.166667 9:-1 10:-0.941176 
32768 1:-0.5 2:1 3:1 4:-0.999839 5:-0.993338 6:0.951807 7:-1 8:0.166667 9:-1 10:-1 
32768 1:-0.5 2:1 3:-1 4:-0.99998 5:-0.983319 6:0.951807 7:-0.0285714 9:-1 10:-1 
32768 1:-0.5 2:1 3:-1 4:-0.987338 5:-0.979304 6:0.951807 7:-0.942857 8:0.333333 9:1 10:-1 
32768 1:1 2:-1 3:-1 4:-0.999988 5:-0.99822 6:0.951807 7:-0.0857143 9:-1 10:-1 
32768 1:-0.5 2:-1 3:-1 4:-0.999992 5:-0.995586 6:0.951807 7:-0.428571 8:0.166667 9:-1 10:-1 
32768 1:1 2:-1 3:-1 4:-0.999999 5:-0.999383 6:1 7:0.657143 8:-0.166667 9:-1 10:-1 
32768 1:1 2:-1 3:-1 4:-0.999996 5:-0.999164 6:0.951807 7:0.657143 8:-0.333333 9:-1 10:-1 
32768 1:0.5 2:-1 3:-1 4:-0.999996 5:-0.999842 6:0.951807 7:-0.0285714 8:-0.333333 9:-1 10:-1 
32768 1:1 2:-1 3:-1 4:-0.999889 5:-0.992869 6:0.951807 7:0.657143 9:-1 10:-1 
32768 1:1 2:1 3:1 4:-0.999704 5:-0.941823 6:0.951807 7:0.2 8:0.333333 9:1 10:-1 
32768 1:1 2:-1 3:-1 4:-0.999918 5:-0.98755 6:0.951807 7:-0.0285714 8:-0.166667 9:-1 10:-1 
32768 1:-0.5 2:1 3:1 4:-0.999976 5:-0.993664 6:0.951807 7:-0.771429 8:-0.166667 9:-1 10:-1 
32768 1:-0.5 2:-1 3:-1 4:-0.999925 5:-0.985643 6:1 7:-0.428571 8:0.166667 9:-1 10:-1 
32768 1:0.5 2:-1 3:-1 4:-0.999993 5:-0.999633 6:0.951807 7:-0.142857 8:-0.166667 9:-1 10:-1 
32768 1:1 2:1 3:-1 4:-0.999949 5:-0.996577 6:0.951807 7:-0.485714 8:-0.166667 9:1 10:-1 
32768 1:-0.5 2:-1 3:-1 4:-0.998624 5:-0.98419 6:1 7:0.6 8:0.166667 9:1 10:-0.692308 
32768 1:-0.5 2:1 3:1 4:-0.999988 5:-0.995523 6:0.951807 7:-0.657143 8:-0.166667 9:-1 10:-1 
32768 1:0.5 2:-1 3:-1 4:-0.999989 5:-0.999322 6:1 7:1 8:-0.333333 9:-1 10:-1 
32768 1:-0.5 2:-1 3:-1 4:-0.999994 5:-0.999535 6:0.951807 7:-0.6 8:-0.5 9:-1 10:-1 
32768 1:0.5 2:1 3:-1 4:-0.999987 5:-0.998119 6:1 7:-0.0285714 9:-1 10:-1 
32768 1:0.5 2:-1 3:-1 4:-0.999985 5:-0.998616 6:0.951807 7:-0.0285714 8:-0.166667 9:-1 10:-1 
32768 1:-0.5 2:1 3:-1 4:-0.999946 5:-0.998094 6:1 7:-1 8:-0.333333 9:-1 10:-1 
32768 1:1 2:1 3:-1 4:-0.999991 5:-0.999231 6:0.951807 7:-0.942857 8:-0.166667 9:-1 10:-1 
32768 1:1 2:-1 3:1 4:-0.999944 5:-0.991615 6:1 7:-0.428571 8:0.166667 9:-1 10:-1 
32768 1:-0.5 2:-1 3:-1 4:-0.999999 5:-0.999687 6:1 7:1 8:-0.166667 9:-1 10:1 
32768 1:-0.5 2:-1 3:1 4:-0.999969 5:-0.989456 6:0.951807 7:-0.428571 8:-0.166667 9:-1 10:-1 
32768 1:-0.5 2:-1 3:-1 4:-0.999969 5:-0.998201 6:0.951807 7:-0.828571 8:-0.5 9:-1 10:-1 
32768 1:1 2:1 3:-1 4:-0.999447 5:-0.964986 6:1 7:-0.942857 8:-0.166667 9:-1 10:-1 
32768 1:-0.5 2:1 3:-1 4:-0.999881 5:-0.980156 6:0.951807 7:-1 8:0.166667 9:1 10:-1 
32768 1:1 2:-1 3:-1 4:-0.999999 5:-0.999956 6:1 7:-0.142857 8:-0.5 9:-1 10:-1 
32768 1:1 2:-1 3:-1 4:-0.999993 5:-0.999193 6:0.951807 7:0.657143 8:-0.166667 9:-1 10:-1 
32768 1:-0.5 2:-1 3:1 4:-0.999952 5:-0.982575 6:0.951807 7:-0.485714 9:-1 10:-1 
32768 1:-0.5 2:-1 3:-1 4:-0.999959 5:-0.989956 6:1 7:0.714286 8:0.166667 9:1 10:-0.837838 
32768 1:0.5 2:1 3:-1 4:-0.999962 5:-0.999734 6:0.951807 7:-0.0285714 8:-0.5 9:-1 10:-1 
32768 1:1 2:1 3:-1 4:-0.999214 5:-0.999148 6:0.951807 7:-1 8:-0.166667 9:1 10:-1 
32768 1:-0.5 2:-1 3:-1 4:-0.999535 5:-0.999316 6:1 7:-0.142857 9:-1 10:-0.333333 
32768 1:-0.5 2:1 3:1 4:-0.999934 5:-0.997666 6:1 7:0.6 9:1 10:-1 
32768 1:1 2:1 3:-1 4:-0.999905 5:-0.995887 6:0.951807 7:-0.314286 8:-0.166667 9:-1 10:-1 
32768 1:1 2:-1 3:-1 4:-0.999999 5:-0.999164 6:0.951807 7:0.714286 8:-0.166667 9:-1 10:-1 
32768 1:-0.5 2:-1 3:-1 4:-0.999995 5:-0.994829 6:1 7:1 9:-1 10:-1 
32768 1:-0.5 2:-1 3:-1 4:-0.993196 5:-0.973899 6:1 7:-0.942857 8:0.166667 9:-1 10:-0.761905 
32768 1:1 2:-1 3:-1 4:-0.998971 5:-0.99785 6:1 7:0.657143 8:-0.333333 9:1 10:-1 
32768 1:1 2:1 3:-1 4:-0.999978 5:-0.99703 6:0.951807 7:-0.371429 8:-0.166667 9:-1 10:-1 
32768 1:1 2:-1 3:-1 4:-0.999989 5:-0.998933 6:0.951807 7:-0.771429 8:-0.333333 9:-1 10:-1 
32768 1:1 2:1 3:1 4:-0.997351 5:-0.992866 6:1 7:-1 9:1 10:-0.723757 
-32768 1:1 2:-1 3:-1 4:-0.999954 5:-0.994934 6:1 7:-0.371429 8:-0.166667 9:1 10:-1 
-32768 1:-0.5 2:1 3:1 4:-0.999944 5:-0.982977 6:1 7:0.2 8:-0.166667 9:1 10:-1 
-32768 1:-0.5 2:-1 3:1 4:-0.999991 5:-0.996849 6:1 7:-0.428571 8:0.166667 9:-1 10:-1 
-32768 1:-0.5 2:1 3:-1 4:-0.997884 5:-0.99683 6:0.759036 7:-1 8:0.5 9:1 10:-0.90717 
-32768 1:-0.5 2:-1 3:-1 4:-0.999918 5:-0.988063 6:1 7:0.2 8:0.333333 9:1 10:-1 
-32768 1:-0.5 2:1 3:-1 4:-0.999183 5:-0.986432 6:0.975904 7:-0.0285714 8:0.5 9:1 10:-1 
-32768 1:-0.5 2:1 3:1 4:-0.999991 5:-0.998173 6:1 7:-0.0285714 8:0.166667 9:-1 10:-1 
-1094.500279809507 1:-0.5 2:1 3:1 4:-0.999337 5:-0.99804 6:1 7:-0.0285714 9:1 10:1 
-32768 1:-0.5 2:1 3:-1 4:-0.997884 5:-0.99683 6:0.759036 7:-1 8:0.5 9:1 10:-0.90717 
-32768 1:-0.5 2:1 3:-1 4:-0.998928 5:-0.9754 6:1 7:-1 8:0.5 9:1 10:-0.881279 
-32768 1:1 2:1 3:1 4:-0.999577 5:-0.970343 6:1 7:-1 8:0.5 9:-1 10:-0.903805 
-32768 1:-0.5 2:1 3:-1 4:-0.998663 5:-0.981046 6:0.46988 7:0.942857 8:0.166667 9:1 10:-0.771429 
-9135.252694905379 1:-0.5 2:1 3:-1 4:-0.99785 5:-0.981204 6:1 7:-1 8:0.5 9:1 10:-1 
-32768 1:0.5 2:1 3:1 4:-0.979555 5:-0.963279 6:1 7:-1 8:0.5 9:1 10:-0.848485 
-32768 1:-0.5 2:1 3:-1 4:-0.985987 5:-0.97332 6:0.951807 7:0.6 8:0.666667 9:1 10:-1 
-32768 1:-0.5 2:-1 3:-1 4:-0.998595 5:-0.995751 6:1 7:-0.485714 9:-1 10:-1 
-32768 1:-0.5 2:1 3:-1 4:-0.999982 5:-0.992967 6:1 7:-0.0285714 8:0.166667 9:-1 10:-1 
-32768 2:-1 3:-1 4:-0.999915 5:-0.99906 6:1 7:-0.371429 8:0.166667 9:-1 10:-1 
-32768 2:-1 3:-1 4:-0.999992 5:-0.998968 6:1 7:0.6 8:0.166667 9:-1 10:-1 
-32768 1:-0.5 2:1 3:-1 4:-0.999214 5:-0.977221 6:0.759036 7:0.942857 8:0.333333 9:-1 10:-1 
-32768 1:1 2:-1 3:-1 4:-0.999997 5:-0.99944 6:1 7:-0.0285714 8:-0.5 9:-1 10:-1 
-32768 2:-1 3:-1 4:-0.999978 5:-0.999386 6:1 7:-0.428571 9:-1 10:-1 
-32768 1:-0.5 2:1 3:-1 4:-0.999959 5:-0.99905 6:1 7:-0.828571 8:-0.666667 9:-1 10:-1 
-32768 1:1 2:-1 3:1 4:-0.999278 5:-0.999158 6:1 7:-0.314286 8:-0.5 9:-1 10:-0.9 
-32768 1:0.5 2:-1 3:1 4:-0.999603 5:-0.991694 6:1 7:-0.314286 8:0.333333 9:1 10:-0.75 
-32768 1:1 2:-1 3:1 4:-0.999987 5:-0.996932 6:1 7:1 8:0.166667 9:-1 10:-1 
-32768 1:1 2:1 3:-1 4:-0.999957 5:-0.996606 6:1 7:-0.314286 8:0.333333 9:-1 10:-1 
-32768 1:1 2:1 3:-1 4:-0.999988 5:-0.99203 6:1 7:-0.314286 8:0.166667 9:-1 10:-1 
-32768 1:1 2:1 3:-1 4:-0.999988 5:-0.990567 6:1 7:0.6 9:-1 10:-1 
-32768 1:1 2:-1 3:-1 4:-0.999999 5:-0.999911 6:1 7:-0.314286 8:-0.5 9:-1 10:-1 
-32768 2:-1 3:-1 4:-1 5:-0.999791 6:1 7:-0.314286 8:-0.333333 9:-1 10:-1 
-32768 1:1 2:1 3:-1 4:-0.999997 5:-0.999474 6:1 7:-0.314286 8:-0.333333 9:-1 10:-1 
-32768 1:1 2:1 3:-1 4:-0.999979 5:-0.992667 6:1 7:0.714286 8:0.5 9:-1 10:-1 
-32768 1:1 2:-1 3:-1 4:-0.999995 5:-0.99816 6:1 7:-0.314286 9:-1 10:-1 
-32768 1:1 2:1 3:-1 4:-0.999989 5:-0.998746 6:1 7:-0.314286 8:-0.166667 9:-1 10:-1 
-32768 1:1 2:1 3:-1 4:-0.999988 5:-0.998322 6:1 7:-0.314286 8:0.333333 9:-1 10:-1 
-32768 1:0.5 2:1 3:-1 4:-0.999995 5:-0.999132 6:1 7:-0.314286 9:-1 10:-1 
-32768 1:1 2:-1 3:-1 4:-0.999989 5:-0.995611 6:1 7:-0.314286 8:0.5 9:-1 10:-1 
-32768 1:0.5 2:-1 3:-1 4:-0.999996 5:-0.998816 6:1 7:-0.314286 9:-1 10:-1 
-32768 1:0.5 2:-1 3:-1 4:-0.999996 5:-0.998816 6:1 7:-0.314286 9:-1 10:-1 
-32768 1:0.5 2:-1 3:-1 4:-0.999989 5:-0.999164 6:1 7:-0.314286 9:-1 10:-1 
-32768 1:1 2:-1 3:-1 4:-0.999997 5:-0.999376 6:1 7:-0.314286 8:-0.5 9:-1 10:-1 
-32768 1:0.5 2:-1 3:-1 4:-0.99999 5:-0.995808 6:1 7:-0.0857143 8:0.333333 9:-1 10:-1 
-32768 1:0.5 2:1 3:-1 4:-0.999999 5:-0.999516 6:1 7:-0.314286 9:-1 10:-1 
-32768 1:1 2:-1 3:-1 4:-0.999989 5:-0.995611 6:1 7:-0.314286 8:0.5 9:-1 10:-1 
-32768 1:0.5 2:-1 3:-1 4:-0.999996 5:-0.998816 6:1 7:-0.314286 9:-1 10:-1 
-30034.54011281428 1:0.5 2:-1 3:-1 4:-0.999996 5:-0.999699 6:1 7:-0.314286 8:-0.666667 9:-1 10:-1 
-32768 1:0.5 2:-1 3:-1 4:-0.999972 5:-0.997761 6:1 7:-0.314286 8:0.5 9:-1 10:-0.666667 
-32768 1:1 2:1 3:-1 4:-0.999994 5:-0.998974 6:1 7:-0.371429 8:-0.333333 9:-1 10:-1 
-32768 1:0.5 2:1 3:-1 4:-0.999603 5:-0.991694 6:1 7:-0.314286 8:0.333333 9:1 10:-1 
-32768 1:1 2:-1 3:-1 4:-0.999998 5:-0.999221 6:1 7:-0.314286 9:-1 10:-1 
-32768 1:1 2:1 3:-1 4:-0.999996 5:-0.999759 6:1 7:-0.314286 8:0.166667 9:-1 10:-0.636364 
-32768 1:1 2:1 3:-1 4:-0.999968 5:-0.993705 6:1 7:-0.314286 8:0.333333 9:-1 10:-1 
-32768 1:1 2:1 3:-1 4:-0.99999 5:-0.995808 6:1 7:-0.0857143 8:0.333333 9:-1 10:-1 
-32768 1:0.5 2:1 3:-1 4:-0.999773 5:-0.961937 6:1 7:-0.0857143 8:0.166667 9:1 10:-1 
-32768 1:1 2:-1 3:-1 4:-0.999967 5:-0.991191 6:1 7:-0.314286 8:0.666667 9:-1 10:-1 
-32768 1:1 2:1 3:-1 4:-0.99998 5:-0.99677 6:1 7:-0.0285714 9:-1 10:-1 
-32768 1:0.5 2:-1 3:-1 4:-0.999986 5:-0.996419 6:1 7:-0.314286 8:0.166667 9:-1 10:-0.875 
-32768 1:1 2:1 3:-1 4:-0.999987 5:-0.995431 6:1 7:-0.0285714 8:0.5 9:-1 10:-1 
-32768 2:-1 3:-1 4:-0.999986 5:-0.997141 6:1 7:-0.314286 8:0.5 9:-1 10:-1 
-32768 1:1 2:1 3:-1 4:-0.999999 5:-0.999753 6:1 7:-0.314286 8:-0.5 9:-1 10:-1 
-32768 1:0.5 2:-1 3:-1 4:-0.99999 5:-0.998442 6:1 7:-0.314286 9:-1 10:-1 
-32768 2:-1 3:-1 4:-0.99999 5:-0.997296 6:1 7:-0.6 8:-0.166667 9:-1 10:-1 
-32768 1:1 2:1 3:-1 4:-0.962639 5:-0.988284 6:0.180723 7:-0.942857 8:0.5 9:-1 10:-0.943419 
-32768 1:1 2:1 3:-1 4:-0.997347 5:-0.99639 6:0.759036 7:0.942857 8:0.5 9:-1 10:-1 
-32768 1:-0.5 2:1 3:-1 4:-0.999987 5:-0.998553 6:1 7:-0.142857 8:-0.166667 9:-1 10:-1 
-32768 1:1 2:-1 3:-1 4:-0.999997 5:-0.997676 6:1 7:-0.0285714 8:-0.166667 9:-1 10:-1 
-32768 1:0.5 2:-1 3:-1 4:-0.99999 5:-0.997492 6:0.662651 7:-0.142857 8:-0.333333 9:-1 10:-1 
-32768 1:0.5 2:1 3:1 4:-0.999939 5:-0.990384 6:1 7:0.2 8:0.166667 9:-1 10:-0.92 
-32768 1:1 2:1 3:-1 4:-0.998709 5:-0.976717 6:1 7:-1 8:0.166667 9:-1 10:-1 
-30079.95579110334 1:1 2:1 3:-1 4:-0.999989 5:-0.995599 6:1 7:-0.0285714 8:-0.166667 9:-1 10:-1 
-22799.9603727639 1:0.5 2:1 3:-1 4:-0.999793 5:-0.999788 6:1 7:-0.0285714 8:0.166667 9:-1 10:-1 
-32768 1:1 2:-1 3:-1 4:-0.999958 5:-0.999769 6:1 7:1 8:-0.666667 9:-1 10:-0.76 
-32768 1:1 2:1 3:1 4:-0.9942 5:-0.961842 6:1 7:0.828571 8:0.5 9:1 10:-0.6 
-32768 1:1 2:1 3:1 4:-0.999711 5:-0.984833 6:0.759036 7:-0.942857 9:1 10:-0.9 
-32768 1:1 2:1 3:-1 4:-0.995403 5:-0.960648 6:0.39759 7:-1 8:0.666667 9:1 10:-0.877551 
-32768 1:1 2:1 3:-1 4:-0.999691 5:-0.991473 6:1 7:-1 8:0.5 9:1 10:-1 
-32768 1:-0.5 2:1 3:1 4:-0.973788 5:-0.989703 6:0.879518 7:-1 8:0.5 9:1 10:-0.909319 
-32768 1:-0.5 2:1 3:-1 4:-0.99988 5:-0.993791 6:1 7:-0.485714 8:-0.166667 9:1 10:1 
-32768 1:-0.5 2:-1 3:-1 4:-0.895603 5:-0.992803 6:1 7:-1 8:0.666667 9:1 10:-0.848945 
-32768 1:1 2:1 3:-1 4:-0.99527 5:-0.965717 6:1 7:-0.485714 8:0.666667 9:1 10:-1 
-32768 1:1 2:1 3:-1 4:-0.999132 5:-0.991812 6:1 7:-0.142857 8:0.333333 9:1 10:-1 
-32768 1:0.5 2:1 3:-1 4:-0.993019 5:-0.925858 6:1 7:-0.371429 8:0.166667 9:1 10:-1 
-32768 1:-0.5 2:1 3:1 4:-0.992532 5:-0.987087 6:1 7:-0.142857 8:0.5 9:1 
-32768 1:1 2:1 3:-1 4:-0.998068 5:-0.930231 6:1 7:-0.142857 8:0.5 9:1 10:-1 
-32768 1:-0.5 2:-1 3:-1 4:-0.994346 5:-0.946215 6:1 7:-0.142857 8:0.666667 9:1 10:-0.846154 
-32768 1:-0.5 2:1 3:1 4:-0.994137 5:-0.959407 6:1 7:-1 8:0.666667 9:1 10:-0.910828 
-32768 1:-0.5 2:-1 3:-1 4:-0.999998 5:-0.999718 6:1 7:0.657143 8:-0.166667 9:-1 10:-0.2 
-32768 1:-0.5 2:-1 3:-1 4:-0.999746 5:-0.996504 6:1 7:-0.314286 8:0.166667 9:1 10:-1 
-32768 1:1 2:1 3:-1 4:-0.999995 5:-0.99728 6:1 7:-0.771429 8:-0.5 9:1 10:-1 
-32768 1:1 2:-1 3:-1 4:-0.999954 5:-0.992743 6:1 7:-0.142857 9:1 10:-1 
-32768 1:1 2:1 3:-1 4:-0.999993 5:-0.999544 6:1 7:-0.0285714 8:-0.5 9:-1 10:-1 
-32768 1:-0.5 2:-1 3:-1 4:-0.999772 5:-0.997622 6:1 7:-0.314286 9:1 10:-1 
-32768 1:-0.5 2:1 3:-1 4:-0.999649 5:-0.945971 6:1 7:-0.6 8:0.166667 9:1 10:-1 
-32768 1:1 2:1 3:-1 4:-0.999651 5:-0.969998 6:1 7:-0.314286 8:0.666667 9:1 10:-1 
-32768 1:-0.5 2:1 3:-1 4:-0.999302 5:-0.981806 6:1 7:-0.0285714 8:0.5 9:1 10:-0.866667 
-32768 1:-0.5 2:1 3:-1 4:-0.999654 5:-0.991074 6:1 7:0.942857 8:0.5 9:1 10:-0.894737 
-32768 1:1 2:1 3:-1 4:-0.998733 5:-0.989598 6:1 7:-1 8:0.5 9:1 10:-1 
-8433.650749877448 1:-0.5 2:-1 3:-1 4:-0.997594 5:-0.96136 6:1 7:0.828571 8:-0.166667 9:1 10:-1 
-32768 1:1 2:-1 3:-1 4:-0.999988 5:-0.995833 6:1 7:-1 8:0.5 9:-1 10:-1 
-32768 1:1 2:1 3:1 4:-0.982006 5:-0.976138 6:1 7:0.714286 8:0.666667 9:1 10:-0.824818 
-32768 2:-1 3:-1 4:-0.999962 5:-0.986644 6:1 7:-0.942857 8:0.5 9:-1 10:-1 
-32768 1:-0.5 2:1 3:-1 4:-0.999996 5:-0.998806 6:1 7:-1 8:0.333333 9:-1 10:-1 
-32768 1:1 2:-1 3:1 4:-0.999969 5:-0.995111 6:1 7:-0.714286 9:-1 10:-0.384615 
-32768 1:1 2:1 3:1 4:-0.906327 5:-0.998768 6:1 7:-1 8:0.333333 9:1 10:-0.75 
-32768 2:-1 3:-1 4:-0.999958 5:-0.997632 6:1 7:-0.942857 8:-0.5 9:-1 10:-1 
-32768 2:1 3:-1 4:-0.998082 5:-0.967275 6:1 7:-1 8:0.833333 9:1 10:-0.762712 
-32768 1:1 2:-1 3:-1 4:-0.999987 5:-0.992923 6:1 7:-1 8:0.333333 9:-1 10:-1 
-32768 1:-0.5 2:1 3:-1 4:-0.999988 5:-0.998018 6:1 7:0.714286 8:-0.166667 9:-1 10:-1 
-32768 1:1 2:-1 3:-1 4:-0.999832 5:-0.998996 6:1 7:-0.0857143 8:-0.166667 9:-1 10:-1 
-32768 1:-0.5 2:-1 3:-1 4:-0.999852 5:-0.992318 6:1 7:-0.0285714 8:0.333333 9:1 10:-1 
-32768 1:-0.5 2:1 3:1 4:-0.999732 5:-0.987638 6:1 7:-0.6 9:-1 10:-1 
-32768 1:1 2:-1 3:-1 4:-0.999997 5:-0.999474 6:1 7:-0.0285714 8:-0.166667 9:-1 10:-1 
-32768 1:1 2:-1 3:-1 4:-0.999991 5:-0.999446 6:1 7:0.714286 9:-1 10:-1 
-417.7291989682986 1:1 2:-1 3:1 4:-0.999191 5:-0.978772 6:1 7:-0.0285714 8:0.666667 9:-1 10:-1 
-32768 1:1 2:-1 3:-1 4:-0.999996 5:-0.998778 6:1 7:0.657143 8:-0.333333 9:-1 10:-1 
-32768 1:-0.5 2:1 3:-1 4:-0.999764 5:-0.990545 6:1 7:0.771429 9:-1 10:-0.333333 
-32768 1:-0.5 2:-1 3:-1 4:-0.999973 5:-0.987702 6:1 7:1 8:0.666667 9:-1 
-32768 1:1 2:1 3:-1 4:-0.999986 5:-0.989586 6:1 7:0.771429 8:-0.333333 9:-1 10:-1 
-32768 1:1 2:1 3:-1 4:-0.999986 5:-0.989586 6:1 7:0.771429 8:-0.333333 9:-1 10:-1 
-32768 1:1 2:-1 3:-1 4:-0.999992 5:-0.994965 6:1 7:0.942857 8:0.333333 9:-1 10:-1 
-32768 1:1 2:-1 3:-1 4:-0.999992 5:-0.994965 6:1 7:0.942857 8:0.333333 9:-1 10:-1 
-32768 1:-0.5 2:1 3:-1 4:-0.999969 5:-0.997897 6:1 7:-0.942857 8:-0.5 9:-1 10:-1 
-32768 1:1 2:1 3:-1 4:-0.999894 5:-0.995083 6:1 7:0.942857 8:-0.333333 9:-1 10:-1 
-32768 1:-0.5 2:-1 3:1 4:-0.999996 5:-0.997454 6:1 7:0.714286 8:-0.166667 9:-1 10:-1 
-32768 1:-0.5 2:1 3:-1 4:-0.999978 5:-0.984567 6:1 7:-0.828571 8:-0.5 9:-1 10:-1 
-32768 1:1 2:1 3:-1 4:-0.999956 5:-0.969469 6:1 7:-0.942857 8:0.5 9:-1 10:-0.6 
-32768 1:-0.5 2:-1 3:1 4:-0.999993 5:-0.996314 6:1 7:0.714286 8:-0.166667 9:-1 10:-1 
-32768 1:-0.5 2:1 3:-1 4:-0.999964 5:-0.983924 6:1 7:0.771429 8:-0.333333 9:-1 10:-1 
-32768 1:-0.5 2:1 3:-1 4:-0.999607 5:-0.894897 6:0.831325 7:-0.0285714 8:0.5 9:-1 10:-0.885742 
-32768 1:-0.5 2:1 3:1 4:-0.995821 5:-0.992591 6:0.951807 7:0.657143 8:0.166667 9:1 10:-0.924528 
-32768 1:1 2:1 3:-1 4:-0.998522 5:-0.977629 6:0.903614 7:0.657143 8:0.666667 9:1 10:-0.809524 
-32768 2:1 3:1 4:-0.994098 5:-0.99191 6:1 7:-1 8:0.833333 9:1 10:-0.661017 
-3021.111228774314 1:-0.5 2:1 3:1 4:-0.999556 5:-0.991486 6:1 7:-0.485714 8:-0.333333 9:1 10:-1 
-32768 1:-0.5 2:1 3:1 4:-0.962148 5:-0.955075 6:1 7:-0.371429 8:0.833333 9:1 10:-0.818182 
-32768 1:1 2:1 3:-1 4:-0.990647 5:-0.967582 6:1 7:-1 8:0.833333 9:1 10:-0.908397 
-32768 1:-0.5 2:-1 3:-1 4:-0.999984 5:-0.996235 6:1 7:-0.485714 9:-1 10:-1 
-32768 1:-0.5 2:1 3:-1 4:-0.999927 5:-0.999025 6:1 7:-1 8:-0.333333 9:-1 10:-1 
-32768 1:1 2:-1 3:-1 4:-0.999988 5:-0.995352 6:1 7:-0.0285714 8:0.166667 9:-1 10:-1 
-32768 1:1 2:1 3:-1 4:-0.999975 5:-0.99791 6:1 7:-0.428571 8:0.333333 9:-1 10:-1 
-32768 1:1 2:1 3:-1 4:-0.999962 5:-0.997264 6:1 7:0.6 8:0.166667 9:-1 10:-1 
-32768 1:0.5 2:-1 3:-1 4:-0.999994 5:-0.999075 6:1 7:-0.6 8:-0.333333 9:-1 10:-1 
-10295.48559705153 1:-0.5 2:-1 3:1 4:-0.999997 5:-0.999215 6:1 7:-0.0285714 8:-0.333333 9:-1 10:-1 
-32768 1:-0.5 2:1 3:-1 4:-0.999994 5:-0.974754 6:1 7:-0.942857 9:-1 10:-1 
-32768 1:1 2:-1 3:-1 4:-0.999994 5:-0.999509 6:1 7:0.0285714 8:-0.5 9:-1 10:-1 
-32768 1:0.5 2:1 3:-1 4:-0.999979 5:-0.997609 6:1 7:-0.828571 8:0.166667 9:-1 10:-1 
-32768 1:1 2:1 3:-1 4:-0.999945 5:-0.998471 6:1 7:0.142857 8:-0.166667 9:-1 10:-1 
-32768 1:1 2:-1 3:-1 4:-0.999997 5:-0.998642 6:1 7:0.714286 8:-0.333333 9:-1 10:-1 
-32768 2:-1 3:-1 4:-0.999813 5:-0.994196 6:1 7:-0.714286 8:0.333333 9:1 10:-1 
-32768 1:1 2:-1 3:-1 4:-0.99998 5:-0.998464 6:1 7:0.657143 8:0.5 9:-1 10:-1 
-32768 2:-1 3:-1 4:-0.999992 5:-0.99595 6:1 7:-0.885714 9:-1 10:-1 
-32768 1:-0.5 2:1 3:-1 4:-0.999653 5:-0.995918 6:1 7:-1 8:0.166667 9:1 10:-0.85 
-32768 1:-0.5 2:1 3:-1 4:-0.991681 5:-0.943812 6:0.590361 7:-0.942857 8:0.333333 9:-1 10:-0.886792 
-32768 2:-1 3:-1 4:-0.999994 5:-0.999212 6:1 7:-1 9:-1 10:-1 
-32768 1:-0.5 2:-1 3:1 4:-0.99999 5:-0.993822 6:1 7:1 8:-0.166667 9:-1 10:-1 
-32768 1:-0.5 2:-1 3:-1 4:-0.999991 5:-0.997068 6:1 7:0.2 8:-0.166667 9:-1 10:-1 
-32768 1:1 2:1 3:-1 4:-0.99993 5:-0.966572 6:1 7:-0.142857 8:0.333333 9:-1 10:-1 
-32768 1:0.5 2:1 3:-1 4:-0.999945 5:-0.994699 6:1 7:-0.142857 8:0.5 9:1 10:-1 
-32768 1:-0.5 2:-1 3:-1 4:-0.999989 5:-0.997939 6:1 7:-0.942857 8:0.166667 9:-1 10:-1 
-32768 1:-0.5 2:1 3:1 4:-0.999514 5:-0.790646 6:0.638554 7:-0.142857 8:0.5 9:-1 10:-0.644444 
-32768 1:-0.5 2:1 3:1 4:-0.999995 5:-0.998243 6:1 7:0.657143 9:-1 10:-1 
-32768 1:-0.5 2:-1 3:-1 4:-0.999935 5:-0.993417 6:1 7:-1 8:0.5 9:1 10:-1 
-32768 1:-0.5 2:1 3:1 4:-0.999837 5:-0.996574 6:1 7:-0.257143 8:0.166667 9:-1 10:-1 
-32768 1:-0.5 2:1 3:-1 4:-0.999961 5:-0.977446 6:1 7:0.0285714 8:0.333333 9:-1 
-32768 1:-0.5 2:1 3:-1 4:-0.906328 5:-0.925808 6:0.46988 7:-0.0285714 8:0.666667 9:1 10:-0.949515 
-32768 1:1 2:1 3:-1 4:-0.997609 5:-0.898127 6:1 7:-0.0285714 8:0.5 9:1 10:-1 
-8620.774705666117 1:1 2:1 3:-1 4:-0.995966 5:-0.99209 6:1 7:0.942857 8:0.333333 9:1 10:-1 
-32768 1:0.5 2:1 3:-1 4:-0.999926 5:-0.984044 6:1 7:-0.771429 8:0.5 9:-1 10:-0.923077 
-32768 1:1 2:-1 3:-1 4:-0.99628 5:-0.989893 6:1 7:-0.0857143 8:0.666667 9:1 10:-0.913357 
-32768 1:1 2:-1 3:1 4:-0.999993 5:-0.999145 6:1 7:-0.0285714 8:-0.166667 9:-1 10:-1 
-32768 1:1 2:-1 3:-1 4:-0.999969 5:-0.982274 6:1 7:-0.942857 8:0.166667 9:-1 10:-1 
-32768 1:-0.5 2:1 3:1 4:-0.999994 5:-0.995912 6:1 7:-0.6 9:-1 10:-1 
-32768 1:-0.5 2:1 3:1 4:-0.99996 5:-0.982145 6:1 7:-0.771429 8:0.333333 9:-1 10:-1 
-32768 1:1 2:1 3:-1 4:-0.999984 5:-0.983183 6:1 7:-1 8:0.333333 9:-1 10:-1 
-32768 1:1 2:1 3:1 4:-0.999936 5:-0.987831 6:0.975904 7:-0.371429 8:0.333333 9:1 10:-1 
-7468.348835275667 1:-0.5 2:1 3:1 4:-0.999558 5:-0.989747 6:1 7:-0.0285714 8:0.333333 9:1 10:-1 
-32768 1:1 2:1 3:-1 4:-0.999955 5:-0.997926 6:1 7:0.371429 9:1 10:-1 
-32768 2:-1 3:1 4:-0.858333 5:-0.991207 6:1 7:-0.942857 8:0.333333 9:1 10:-0.714286 
-29189.61594813791 1:1 2:-1 3:1 4:-0.993448 5:-0.982588 6:1 7:0.942857 8:0.666667 9:1 10:-0.944444 
-32768 1:1 2:-1 3:-1 4:-0.999998 5:-0.999706 6:1 7:0.657143 8:-0.5 9:-1 10:-1 
-10409.99666593277 1:1 2:1 3:1 4:-0.999979 5:-0.994684 6:1 7:0.657143 9:-1 10:-1 
-32768 1:0.5 2:-1 3:-1 4:-0.999988 5:-0.996324 6:1 7:-0.314286 8:0.166667 9:-1 10:-1 
-32768 1:-0.5 2:1 3:1 4:-0.999993 5:-0.997679 6:1 7:0.257143 8:-0.333333 9:-1 10:-1 
-1341.804885126437 1:-0.5 2:1 3:-1 4:-0.99999 5:-0.998835 6:1 7:0.828571 8:-0.333333 9:-1 10:-1 
-32768 1:-0.5 2:-1 3:-1 4:-0.999999 5:-0.999025 6:1 7:-1 8:-0.333333 9:-1 10:-1 
-32768 1:-0.5 2:1 3:-1 4:-0.999987 5:-0.998461 6:1 7:-0.257143 8:-0.166667 9:-1 10:-1 
-32768 1:-0.5 2:-1 3:1 4:-0.999686 5:-0.872482 6:0.951807 7:-0.485714 8:0.5 9:-1 10:-1 
-12096.59234988439 1:1 2:-1 3:1 4:-0.993448 5:-0.982588 6:1 7:0.942857 8:0.666667 9:1 10:-0.944444 
-32768 1:-0.5 2:1 3:1 4:-0.999998 5:-0.999829 6:1 7:-0.0285714 8:0.333333 9:-1 10:-1 
-30339.66918337976 1:-0.5 2:1 3:1 4:-0.999952 5:-0.924487 6:1 7:0.2 8:0.5 9:-1 10:-1 
-32768 1:-0.5 2:-1 3:-1 4:-0.999996 5:-0.999098 6:1 7:0.942857 8:-0.166667 9:-1 10:-1 
-32768 1:-0.5 2:-1 3:-1 4:-0.999489 5:-0.997654 6:1 7:-0.657143 8:0.333333 9:1 10:-0.985075 
-32768 1:1 2:1 3:-1 4:-0.999949 5:-0.981122 6:1 7:-0.657143 9:-1 10:-1 
-32768 1:-0.5 2:-1 3:-1 4:-0.999999 5:-0.998433 6:1 7:-0.0285714 8:-0.166667 9:-1 10:-1 
-32768 1:-0.5 2:1 3:1 4:-0.999945 5:-0.980641 6:1 7:0.2 8:-0.166667 9:-1 10:-1 
-32768 1:1 2:-1 3:-1 4:-0.999946 5:-0.995051 6:1 7:0.371429 8:0.5 9:-1 10:-1 
-32768 1:-0.5 2:-1 3:1 4:-0.999974 5:-0.98913 6:1 7:-1 8:0.166667 9:-1 10:-1 
-871.1878627011143 1:0.5 2:-1 3:1 4:-0.99998 5:-0.99141 6:1 7:-1 8:0.5 9:1 10:-1 
-32768 1:1 2:1 3:-1 4:-0.999849 5:-0.978506 6:1 7:0.371429 8:0.333333 9:1 10:-1 
-32768 1:1 2:-1 3:-1 4:-0.999978 5:-0.998743 6:1 7:-0.6 9:-1 10:-1 
-32768 1:-0.5 2:-1 3:-1 4:-0.999705 5:-0.969343 6:1 7:-1 8:0.666667 9:1 10:-1 
-32768 1:0.5 2:-1 3:-1 4:-0.999976 5:-0.989009 6:1 7:-0.142857 8:0.666667 9:-1 10:-1 
-10628.01235572653 1:-0.5 2:-1 3:1 4:-0.99845 5:-0.92898 6:1 7:-1 8:0.5 9:-1 10:-1 
-29117.56368657505 1:1 2:1 3:-1 4:-0.99957 5:-0.958127 6:1 7:-0.142857 8:0.5 9:-1 10:-1 
-32768 1:0.5 2:-1 3:-1 4:-0.999998 5:-0.999642 6:1 7:0.2 8:-0.333333 9:-1 10:-1 
-32768 1:1 2:-1 3:-1 4:-0.999946 5:-0.999126 6:1 7:-0.2 9:1 10:-1 
-32768 1:-0.5 2:1 3:1 4:-0.999991 5:-0.998312 6:1 7:-0.6 9:-1 10:-1 
-32768 1:-0.5 2:-1 3:-1 4:-0.999704 5:-0.988984 6:1 7:-0.0857143 8:0.333333 9:-1 10:-0.846154 
-32768 2:-1 3:-1 4:-0.999951 5:-0.985428 6:1 7:-1 8:0.5 9:-1 10:-1 
-32768 1:-0.5 2:1 3:-1 4:-0.999776 5:-0.991973 6:0.759036 7:-1 8:0.333333 9:1 10:-1 
-32768 2:-1 3:-1 4:-0.99998 5:-0.991571 6:1 7:-0.942857 8:-0.166667 9:-1 10:-1 
-32768 1:0.5 2:-1 3:-1 4:-0.999999 5:-0.999066 6:1 7:-1 8:-0.166667 9:-1 10:-1 
-20328.49839462326 2:-1 3:-1 4:-0.99998 5:-0.992559 6:1 7:-0.0285714 8:0.5 9:-1 10:-1 
-32768 1:-0.5 2:-1 3:-1 4:-0.999983 5:-0.995399 6:1 7:-0.485714 9:-1 10:-1 
-32768 1:-0.5 2:-1 3:-1 4:-0.999954 5:-0.996767 6:1 7:-0.0285714 8:0.666667 9:-1 10:-0.714286 
-32768 1:-0.5 2:-1 3:-1 4:-0.999954 5:-0.996767 6:1 7:-0.0285714 8:0.666667 9:-1 10:-0.714286 
-32768 1:0.5 2:1 3:-1 4:-0.999991 5:-0.99495 6:1 7:-1 8:0.166667 9:-1 10:-1 
-32768 1:0.5 2:-1 3:-1 4:-0.999986 5:-0.998401 6:1 7:-0.142857 8:-0.166667 9:-1 10:-1 
-32768 1:-0.5 2:-1 3:-1 4:-0.999986 5:-0.993984 6:1 7:-1 8:-0.166667 9:-1 10:-1 
-32768 1:-0.5 2:1 3:-1 4:-0.999958 5:-0.984386 6:1 7:1 8:0.5 9:-1 10:-0.866667 
-32768 1:-0.5 2:1 3:-1 4:-0.999959 5:-0.997112 6:1 7:-1 8:0.166667 9:1 10:-1 
-23314.60858959955 1:1 2:1 3:1 4:-0.99998 5:-0.994383 6:1 7:-0.0857143 9:-1 10:-1 
-32768 1:1 2:-1 3:-1 4:-0.976559 5:-0.998224 6:0.903614 7:-1 8:0.5 9:1 10:-0.733333 
-32768 1:0.5 2:-1 3:-1 4:-0.999958 5:-0.991603 6:1 7:-1 8:0.666667 9:-1 10:-1 
-32768 1:-0.5 2:1 3:1 4:-0.999948 5:-0.982962 6:1 7:-1 8:-0.166667 9:-1 10:-1 
-32768 1:-0.5 2:-1 3:-1 4:-0.992169 5:-0.99626 6:1 7:-0.942857 8:0.5 9:1 10:-0.548387 
-32768 1:-0.5 2:1 3:-1 4:-0.996479 5:-0.985818 6:1 7:-1 8:0.166667 9:-1 10:-1 
-32768 1:1 2:1 3:-1 4:-0.999989 5:-0.99469 6:1 7:-0.142857 8:0.5 9:-1 10:-1 
-32768 1:1 2:1 3:-1 4:-0.843154 5:-0.936874 6:1 7:-1 8:0.666667 9:1 10:-0.882353 
-14415.17464758937 1:-0.5 2:-1 3:-1 4:-0.607556 5:-0.885791 6:1 7:-1 8:0.666667 9:1 10:-0.538462 
-32768 1:0.5 2:-1 3:-1 4:-0.999946 5:-0.99152 6:1 7:0.2 8:0.666667 9:-1 10:-1 
-32768 1:1 2:1 3:1 4:-0.999352 5:-0.995209 6:1 7:-1 8:0.166667 9:-1 
-32768 1:1 2:-1 3:-1 4:-0.999908 5:-0.993696 6:1 7:-0.485714 8:0.5 9:-1 10:-1 
-32768 1:0.5 2:-1 3:-1 4:-0.999976 5:-0.994731 6:1 7:-0.142857 8:0.333333 9:-1 10:-1 
-32768 1:1 2:1 3:-1 4:-0.999903 5:-0.966138 6:1 7:-1 8:0.5 9:-1 10:-1 
-32768 1:0.5 2:-1 3:-1 4:-0.999976 5:-0.988715 6:1 7:-0.0285714 8:0.5 9:-1 10:-1 
-32768 1:-0.5 2:1 3:-1 4:-0.735397 5:-0.882029 6:0.903614 7:0.942857 8:0.833333 9:-1 10:-0.928571 
-32768 1:1 2:-1 3:1 4:-0.999042 5:-0.989117 6:1 7:-1 9:-1 10:-1 
-15157.66851085041 2:1 3:-1 4:-0.999956 5:-0.994019 6:1 7:-0.0285714 8:0.333333 9:1 10:-1 
-32768 2:-1 3:-1 4:-0.997339 5:-0.968975 6:1 7:-0.0285714 8:0.666667 9:1 10:-0.9375 
-31260.38150574454 1:-0.5 2:-1 3:-1 4:-0.999976 5:-0.995364 6:1 7:-0.371429 8:0.166667 9:-1 10:-1 
-32768 2:-1 3:-1 4:-0.998126 5:-0.929896 6:1 7:-0.0285714 8:0.5 9:1 10:-1 
-32768 1:1 2:1 3:-1 4:-0.999974 5:-0.985403 6:1 7:-0.885714 8:0.166667 9:-1 10:-1 
-32768 1:-0.5 2:-1 3:-1 4:-0.999565 5:-0.998936 6:1 7:1 8:0.333333 9:1 10:-1 
-32768 2:-1 3:-1 4:-0.999961 5:-0.994506 6:1 7:-0.428571 8:0.333333 9:-1 10:-1 
-32768 1:0.5 2:-1 3:-1 4:-0.999938 5:-0.985374 6:1 7:0.257143 8:0.5 9:-1 10:-1 
-32768 1:-0.5 2:-1 3:-1 4:-0.997429 5:-0.988259 6:1 7:-1 8:0.5 9:1 10:-0.923077 
-32768 1:-0.5 2:-1 3:-1 4:-0.999936 5:-0.991178 6:1 7:-1 8:0.666667 9:1 10:-1 
-32768 1:-0.5 2:-1 3:-1 4:-0.999977 5:-0.996074 6:1 7:0.657143 8:0.333333 9:-1 10:-1 
-32768 1:-0.5 2:-1 3:1 4:-0.999994 5:-0.999009 6:1 7:-0.314286 9:-1 10:-1 
-32768 1:0.5 2:-1 3:-1 4:-0.999904 5:-0.983554 6:1 7:-0.371429 8:0.5 9:-1 10:-1 
-32768 1:-0.5 2:-1 3:-1 4:-0.999983 5:-0.995827 6:1 7:0.657143 8:0.333333 9:-1 10:-1 
-32768 1:-0.5 2:1 3:-1 4:-0.989439 5:-0.914051 6:0.951807 7:0.6 8:0.666667 9:1 10:-1 
-32768 1:1 2:-1 3:-1 4:-0.999986 5:-0.993224 6:1 7:-0.0285714 8:0.333333 9:-1 10:-1 
-32768 1:-0.5 2:1 3:-1 4:-0.999214 5:-0.977221 6:0.759036 7:0.942857 8:0.333333 9:-1 10:-1 
-32768 1:-0.5 2:1 3:-1 4:-0.998154 5:-0.970916 6:1 7:-1 8:0.5 9:-1 10:-0.361702 
-13021.85416755356 1:-0.5 2:1 3:-1 4:-0.83501 5:-0.952013 6:1 7:-0.942857 8:0.666667 9:-1 10:-0.853211 
-32768 1:1 2:1 3:-1 4:-0.999981 5:-0.963032 6:1 7:-0.0285714 8:0.5 9:-1 10:-1 
-32768 1:1 2:-1 3:-1 4:-0.999978 5:-0.994316 6:1 7:-0.0285714 8:0.5 9:-1 10:-1 
-32768 1:1 2:1 3:-1 4:-0.999968 5:-0.992239 6:0.951807 7:0.942857 8:0.333333 9:-1 10:-1 
-32768 1:1 2:-1 3:-1 4:-0.999017 5:-0.99804 6:1 7:0.657143 8:0.333333 9:-1 10:-1 
-32768 1:-0.5 2:1 3:1 4:-0.999984 5:-0.99722 6:1 7:-1 8:-0.166667 9:-1 10:-1 
-32768 1:1 2:-1 3:-1 4:-0.999995 5:-0.996732 6:1 7:-0.0285714 9:-1 10:-1 
-32768 1:1 2:1 3:-1 4:-0.999904 5:-0.982708 6:1 7:-0.0285714 8:0.5 9:-1 10:-1 
-32768 2:-1 3:-1 4:-0.999993 5:-0.999797 6:1 7:0.2 9:-1 10:-1 
-32768 1:-0.5 2:1 3:1 4:-0.999992 5:-0.999357 6:1 7:0.771429 8:-0.166667 9:-1 10:-1 
-32768 1:1 2:-1 3:-1 4:-0.999991 5:-0.99842 6:1 7:-0.142857 8:-0.166667 9:-1 10:-1 
-32768 1:0.5 2:-1 3:-1 4:-0.999969 5:-0.971486 6:1 7:-0.2 8:0.666667 9:-1 10:-1 
-32768 1:0.5 2:1 3:-1 4:-0.999991 5:-0.999509 6:1 7:-0.828571 8:0.166667 9:-1 10:-1 
-32768 1:1 2:1 3:-1 4:-0.999983 5:-0.999186 6:1 7:0.0285714 8:-0.166667 9:-1 10:-1 
-32768 1:1 2:-1 3:-1 4:-0.999999 5:-0.999782 6:1 7:-0.6 8:-0.333333 9:-1 10:-1 
-32768 1:1 2:-1 3:-1 4:-0.999997 5:-0.998201 6:1 7:-0.371429 8:-0.333333 9:-1 10:-1 
-32768 1:1 2:1 3:-1 4:-0.998899 5:-0.995111 6:1 7:-1 9:1 10:-1 
-32768 1:1 2:-1 3:-1 4:-0.983881 5:-0.998034 6:1 7:-1 9:1 10:-1 
-32768 1:1 2:-1 3:-1 4:-0.996097 5:-0.954742 6:1 7:-1 8:0.666667 9:1 10:-0.888889 
-32768 1:1 2:1 3:-1 4:-0.999978 5:-0.989415 6:1 7:-0.142857 8:0.5 9:-1 10:-1 
-32768 1:-0.5 2:1 3:-1 4:-0.997405 5:-0.982404 6:-1 7:0.771429 8:0.5 9:-1 10:-0.945946 
-32768 1:0.5 2:1 3:-1 4:-0.999986 5:-0.992853 6:1 7:-1 8:0.333333 9:-1 10:-1 
-32768 1:1 2:1 3:-1 4:-0.999997 5:-0.998119 6:1 7:0.6 9:-1 10:-1 
-32768 1:1 2:1 3:-1 4:-0.999994 5:-0.996704 6:1 7:0.942857 9:-1 10:-1 
-32768 1:1 2:1 3:-1 4:-0.998496 5:-0.998961 6:0.879518 7:0.828571 9:-1 10:-0.959596 
-32768 1:1 2:1 3:-1 4:-0.999996 5:-0.999003 6:1 7:0.942857 8:-0.333333 9:-1 10:-1 
-32768 1:1 2:1 3:-1 4:-0.999989 5:-0.993157 6:1 7:-0.942857 8:0.166667 9:-1 10:-1 
-32768 1:-0.5 2:1 3:-1 4:-0.999906 5:-0.982901 6:1 7:-1 8:0.333333 9:-1 10:-1 
-32768 1:-0.5 2:1 3:1 4:-0.999991 5:-0.988645 6:1 7:-0.0285714 8:0.166667 9:-1 10:-1 
-32768 1:1 2:-1 3:-1 4:-0.999991 5:-0.997229 6:1 7:0.2 8:0.166667 9:-1 10:-1 
-32768 1:-0.5 2:1 3:1 4:-0.99998 5:-0.975539 6:0.879518 7:-1 8:0.333333 9:-1 10:-1 
-32768 1:-0.5 2:1 3:-1 4:-0.999912 5:-0.990925 6:0.831325 7:-0.257143 8:-0.166667 9:-1 10:-1 
-32768 1:1 2:1 3:-1 4:-0.999999 5:-0.997831 6:1 7:1 8:-0.5 9:-1 10:-1 
-32768 1:1 2:1 3:-1 4:-0.999667 5:-0.982844 6:1 7:-0.0285714 8:0.5 9:1 10:-1 
-32768 1:-0.5 2:1 3:-1 4:-0.957885 5:-0.987866 6:1 7:-1 8:0.833333 9:1 10:-0.940153 
-32768 2:1 3:-1 4:-0.999908 5:-0.997793 6:1 7:-0.371429 9:1 10:-1 
-32768 1:1 2:1 3:1 4:-0.999725 5:-0.990925 6:1 7:-0.0857143 8:0.5 9:1 10:-0.636364 
-32768 1:1 2:1 3:-1 4:-0.999984 5:-0.990884 6:0.903614 7:-0.942857 8:0.5 9:-1 10:-1 
-26330.13484095839 1:1 2:1 3:1 4:-0.999861 5:-0.983991 6:1 7:-0.942857 9:-1 10:-1 
-32768 1:1 2:1 3:-1 4:-0.99981 5:-0.97458 6:1 7:-0.0285714 8:0.5 9:-1 10:-1 
-24232.10099596948 1:-0.5 2:-1 3:-1 4:-0.999953 5:-0.991831 6:1 7:0.657143 8:0.333333 9:-1 10:-1 
-32768 2:1 3:-1 4:-0.999993 5:-0.998585 6:1 7:-0.371429 8:-0.166667 9:-1 10:-1 
-32768 1:-0.5 2:-1 3:-1 4:-0.999695 5:-0.934291 6:1 7:-0.714286 8:0.166667 9:1 10:-1 
-32768 2:-1 3:-1 4:-0.999933 5:-0.997182 6:1 7:-0.942857 9:-1 10:-1 
-32768 1:1 2:-1 3:-1 4:-0.999985 5:-0.998765 6:1 7:0.714286 8:0.166667 9:-1 10:-0.6 
-32768 1:-0.5 2:-1 3:-1 4:-0.999959 5:-0.98869 6:1 7:-0.371429 8:0.166667 9:-1 10:-1 
-32768 1:1 2:1 3:-1 4:-0.999953 5:-0.999497 6:1 7:-0.0285714 8:0.5 9:-1 10:-1 
-32521.14008111739 1:-0.5 2:1 3:-1 4:-0.99994 5:-0.996463 6:1 7:-0.371429 9:-1 10:-1 
-32768 1:1 2:-1 3:-1 4:-0.999989 5:-0.998439 6:1 7:0.657143 9:-1 
-32768 1:-0.5 2:-1 3:-1 4:-0.999984 5:-0.995855 6:1 7:0.657143 8:0.333333 9:-1 10:-1 
-15155.11600317982 1:-0.5 2:1 3:1 4:-0.97808 5:-0.984941 6:1 7:0.714286 8:-0.166667 9:-1 10:-1 
-32768 1:-0.5 2:1 3:1 4:-0.986974 5:-0.985045 6:1 7:-0.428571 8:-0.166667 9:-1 10:-1 
-32768 2:-1 3:-1 4:-0.999894 5:-0.973896 6:1 7:0.6 8:0.666667 9:1 10:-1 
-32768 1:-0.5 2:-1 3:-1 4:-0.987624 5:-0.978734 6:1 7:-0.2 8:0.5 9:1 10:-0.5 
-32768 2:-1 3:-1 4:-0.994653 5:-0.954888 6:1 7:-0.2 8:0.5 9:1 10:-1 
-32768 1:-0.5 2:-1 3:-1 4:-0.999993 5:-0.99899 6:1 7:-0.314286 8:0.166667 9:-1 10:-1 
-32768 1:0.5 2:-1 3:-1 4:-0.999957 5:-0.984884 6:1 7:-0.142857 8:0.5 9:-1 10:-1 
-32768 1:-0.5 2:-1 3:-1 4:-0.99985 5:-0.996096 6:1 7:-0.257143 8:0.166667 9:-1 10:-1 
-32768 1:-0.5 2:-1 3:-1 4:-0.999976 5:-0.998942 6:1 7:-0.828571 8:0.333333 9:-1 10:-1 
-32768 1:1 2:1 3:-1 4:-0.999968 5:-0.993787 6:1 7:-0.0285714 8:0.333333 9:-1 10:-1 
-32768 2:-1 3:-1 4:-0.99999 5:-0.999139 6:1 7:-0.942857 9:-1 10:-1 
-32768 1:0.5 2:-1 3:-1 4:-0.999988 5:-0.995956 6:1 7:1 8:0.5 9:-1 10:-1 
-17035.03652749988 1:1 2:1 3:1 4:-0.994989 5:-0.974054 6:1 7:-1 8:0.666667 9:1 10:-0.949875 
-32768 1:-0.5 2:1 3:-1 4:-0.999982 5:-0.992967 6:1 7:-0.0285714 8:0.166667 9:-1 10:-1 
-30748.37543471494 1:-0.5 2:-1 3:-1 4:-0.999978 5:-0.995554 6:1 7:-0.6 8:0.333333 9:-1 10:1 
-32768 2:-1 3:-1 4:-0.999984 5:-0.997932 6:1 7:-0.657143 8:0.333333 9:-1 10:-1 
-8507.920903890719 1:-0.5 2:1 3:-1 4:-0.999913 5:-0.980352 6:1 7:-1 8:0.5 9:-1 10:1 
-32768 1:-0.5 2:1 3:-1 4:-0.967802 5:-0.968991 6:1 7:-0.257143 8:0.666667 9:1 10:-0.906977 
-32768 2:-1 3:-1 4:-0.999992 5:-0.998968 6:1 7:0.6 8:0.166667 9:-1 10:-1 
-32768 1:1 2:-1 3:-1 4:-0.96728 5:-0.985083 6:1 7:-0.0285714 9:-1 10:-1 
-14159.06082902095 1:-0.5 2:-1 3:-1 4:-0.999969 5:-0.99817 6:1 7:-0.0285714 8:0.166667 9:-1 10:-1 
-31838.36780405054 1:-0.5 2:-1 3:-1 4:-0.999969 5:-0.99817 6:1 7:-0.0285714 8:0.166667 9:-1 10:-1 
-32768 1:-0.5 2:1 3:1 4:-0.995351 5:-0.984855 6:1 7:0.2 8:-0.166667 9:-1 10:-1 
-32768 2:1 3:1 4:-0.987467 5:-0.959859 6:0.879518 7:-0.0285714 8:0.5 9:1 10:-1 
-32768 1:-0.5 2:1 3:1 4:-0.99998 5:-0.971344 6:1 7:0.6 9:-1 10:-1 
-32768 1:-0.5 2:-1 3:-1 4:-0.999969 5:-0.997138 6:1 7:-0.314286 8:0.333333 9:1 10:-1 
-32768 1:-0.5 2:-1 3:-1 4:-0.9999 5:-0.993145 6:1 7:-0.6 9:-1 10:-1 
-32768 1:-0.5 2:1 3:-1 4:-0.99941 5:-0.987622 6:1 7:-0.0285714 8:0.5 9:1 10:-0.777778 
-32768 1:1 2:1 3:-1 4:-0.998619 5:-0.992024 6:1 7:-1 8:0.333333 9:1 10:-1 
-32768 2:1 3:1 4:-0.999991 5:-0.998762 6:1 7:-0.371429 9:-1 10:-1 
-32768 1:1 2:1 3:-1 4:-0.999906 5:-0.982122 6:1 7:0.942857 8:0.333333 9:-1 10:-1 
-32768 1:1 2:-1 3:-1 4:-0.999993 5:-0.999756 6:1 7:0.942857 8:0.166667 9:-1 10:-1 
-32768 1:1 2:1 3:-1 4:-0.999991 5:-0.997343 6:1 7:0.0285714 8:0.166667 9:-1 10:-1 
-32768 1:-0.5 2:-1 3:-1 4:-0.998027 5:-0.985941 6:1 7:-1 8:0.5 9:1 10:-1 
-32768 1:-0.5 2:-1 3:-1 4:-0.998027 5:-0.985941 6:1 7:-1 8:0.5 9:1 10:-1 
-32768 1:-0.5 2:-1 3:-1 4:-0.99997 5:-0.981296 6:1 7:-0.314286 8:0.333333 9:-1 10:-0.733333 
-32768 1:-0.5 2:-1 3:-1 4:-0.999984 5:-0.991729 6:1 7:0.714286 8:0.333333 9:-1 10:1 
-32768 1:-0.5 2:-1 3:-1 4:-0.999984 5:-0.991729 6:1 7:0.714286 8:0.333333 9:-1 10:1 
-32768 1:-0.5 2:-1 3:-1 4:-0.999976 5:-0.994307 6:1 7:-0.0285714 8:0.166667 9:-1 10:-1 
-32768 1:-0.5 2:-1 3:-1 4:-0.999976 5:-0.994307 6:1 7:-0.0285714 8:0.166667 9:-1 10:-1 
-32768 1:1 2:-1 3:1 4:-0.978046 5:-0.977012 6:1 7:-1 8:0.5 9:1 10:-0.943662 
-32768 1:1 2:-1 3:-1 4:-0.999938 5:-0.99829 6:1 7:-0.428571 8:-0.666667 9:-1 10:-1 
-32768 1:-0.5 2:-1 3:-1 4:-0.99999 5:-0.995953 6:1 7:-0.771429 8:0.166667 9:-1 10:-1 
-32768 1:1 2:1 3:-1 4:-0.999982 5:-0.997271 6:1 7:-0.0285714 8:0.166667 9:-1 10:-1 
-32768 1:-0.5 2:-1 3:-1 4:-0.999885 5:-0.995808 6:1 7:-0.142857 8:0.166667 9:1 10:-1 
-32768 1:-0.5 2:-1 3:-1 4:-0.999885 5:-0.995808 6:1 7:-0.142857 8:0.166667 9:1 10:-1 
-32768 1:1 2:1 3:-1 4:-0.994778 5:-0.986954 6:1 7:-0.0285714 8:0.166667 9:-1 10:-0.943662 
-32768 1:-0.5 2:1 3:1 4:-0.999997 5:-0.997663 6:1 7:0.6 8:-0.333333 9:-1 10:-1 
-10808.22568235498 2:1 3:1 4:-0.999994 5:-0.998911 6:1 7:-0.6 9:-1 10:-1 
-32768 1:0.5 2:-1 3:-1 4:-0.999991 5:-0.995136 6:1 7:-0.885714 8:0.333333 9:-1 10:-1 
-32768 1:1 2:-1 3:-1 4:-0.999996 5:-0.999702 6:1 7:-1 8:-0.5 9:-1 10:-1 
-32768 1:0.5 2:-1 3:-1 4:-1 5:-0.999943 6:1 7:-1 8:-0.666667 9:-1 10:-1 
-32768 1:-0.5 2:1 3:-1 4:-0.99997 5:-0.973652 6:0.710843 7:-1 8:0.5 9:-1 10:1 
-32768 1:0.5 2:-1 3:-1 4:-0.999958 5:-0.993958 6:1 7:-0.6 8:0.5 9:-1 10:-1 
-32768 1:0.5 2:-1 3:-1 4:-0.999984 5:-0.994804 6:1 7:-0.942857 9:-1 10:-1 
-32768 2:-1 3:-1 4:-0.999401 5:-0.995918 6:1 7:0.714286 9:-1 10:-1 
-32768 1:-0.5 2:1 3:1 4:-0.999858 5:-0.973269 6:1 7:-1 8:-0.166667 9:1 10:-0.833333 
-30978.73727854122 1:-0.5 2:1 3:-1 4:-0.996097 5:-0.857717 6:1 7:-0.6 8:0.166667 9:1 10:-1 
-32768 1:1 2:1 3:-1 4:-0.996556 5:-0.992112 6:1 7:-0.0285714 8:0.333333 9:-1 10:-0.965517 
-25667.25497241798 1:-0.5 2:-1 3:1 4:-0.99972 5:-0.945956 6:1 7:-0.0285714 8:-0.166667 9:-1 10:-1 
-25791.63841923009 1:-0.5 2:-1 3:1 4:-0.99972 5:-0.945956 6:1 7:-0.0285714 8:-0.166667 9:-1 10:-1 
-32768 1:1 2:1 3:-1 4:-0.999991 5:-0.99849 6:1 7:-0.314286 9:-1 10:-1 
-32768 1:1 2:-1 3:-1 4:-0.999981 5:-0.998737 6:1 7:0.657143 8:0.166667 9:-1 
-32768 1:1 2:-1 3:1 4:-0.999991 5:-0.998914 6:1 7:0.714286 9:-1 10:-1 
-32768 1:-0.5 2:-1 3:-1 4:-0.999841 5:-0.996694 6:1 7:-1 9:1 10:-1 
-32768 1:1 2:-1 3:-1 4:-0.999985 5:-0.994452 6:1 7:-0.142857 8:-0.166667 9:1 10:-1 
-32768 1:-0.5 2:-1 3:-1 4:-0.999993 5:-0.997603 6:1 7:0.0285714 8:0.166667 9:-1 10:-1 
-32768 1:1 2:1 3:-1 4:-0.999993 5:-0.998645 6:1 7:-0.428571 8:-0.166667 9:-1 10:-1 
-32768 1:-1 2:1 3:-1 4:-0.999996 5:-0.998946 6:1 7:-0.314286 8:-0.166667 9:-1 10:-1 
-32768 1:1 2:1 3:-1 4:-0.997199 5:-0.980451 6:0.951807 7:-0.6 8:0.333333 9:-1 10:-0.75 
-32768 1:-0.5 2:-1 3:1 4:-0.999879 5:-0.972797 6:0.951807 7:-0.0285714 8:0.166667 9:1 10:-1 
-32768 1:1 2:-1 3:-1 4:-0.999984 5:-0.997739 6:1 7:-0.142857 8:-0.166667 9:1 10:-1 
-32768 2:-1 3:-1 4:-0.999915 5:-0.99906 6:1 7:-0.371429 8:0.166667 9:-1 10:-1 
-32768 1:1 2:-1 3:-1 4:-0.999934 5:-0.97483 6:1 7:-0.6 8:0.166667 9:-1 10:-1 
-32768 1:-0.5 2:1 3:-1 4:-0.998346 5:-0.988785 6:1 7:-0.942857 8:0.333333 9:1 10:-0.714286 
-32768 1:-0.5 2:-1 3:-1 4:-0.999987 5:-0.997112 6:1 7:0.6 8:0.166667 9:-1 10:-1 
-32768 1:1 2:1 3:-1 4:-0.99999 5:-0.998442 6:1 7:-1 8:-0.5 9:-1 10:-1 
-32768 1:-0.5 2:-1 3:1 4:-0.999997 5:-0.99981 6:1 7:0.2 8:-0.333333 9:-1 10:-1 
-32768 1:-0.5 2:1 3:-1 4:-0.996783 5:-0.998961 6:1 7:-1 9:1 10:-0.142857 
-32768 1:-0.5 2:1 3:-1 4:-0.999992 5:-0.999212 6:1 7:-0.942857 8:-0.166667 9:1 10:-1 
-32768 1:1 2:1 3:-1 4:-0.999961 5:-0.99892 6:1 7:-0.942857 9:1 10:-1 
-32768 1:0.5 2:1 3:-1 4:-0.999988 5:-0.996979 6:1 7:-0.0857143 8:-0.166667 9:-1 10:-1 
-32768 1:1 2:-1 3:-1 4:-0.999971 5:-0.996267 6:1 7:0.6 8:-0.166667 9:1 10:-1 
-32768 1:-0.5 2:-1 3:-1 4:-0.999987 5:-0.993753 6:1 7:1 8:-0.166667 9:-1 10:-1 
-10778.50561787204 1:-0.5 2:1 3:-1 4:-0.999845 5:-0.988256 6:1 7:-0.0285714 8:-0.333333 9:-1 10:-1 
-32768 1:1 2:-1 3:1 4:-0.999991 5:-0.982436 6:1 7:-0.942857 8:0.166667 9:-1 10:-1 
-32768 1:1 2:-1 3:-1 4:-0.999997 5:-0.99944 6:1 7:-0.0285714 8:-0.5 9:-1 10:-1 
-32768 2:-1 3:-1 4:-0.999976 5:-0.981578 6:1 7:-0.942857 8:0.166667 9:-1 10:-1 
-32768 1:-0.5 2:1 3:1 4:-0.999903 5:-0.989896 6:1 7:-0.142857 9:1 10:-1 
-32768 1:0.5 2:-1 3:-1 4:-0.999989 5:-0.994259 6:1 7:1 8:-0.166667 9:-1 10:-1 
-32768 1:-0.5 2:-1 3:-1 4:-0.999926 5:-0.999164 6:1 7:0.657143 8:-0.333333 9:1 10:-1 
-32768 1:-0.5 2:1 3:-1 4:-0.998712 5:-0.987638 6:1 7:-0.0285714 8:0.166667 9:1 10:-0.333333 
-32768 1:-0.5 2:-1 3:-1 4:-0.998595 5:-0.995751 6:1 7:-0.485714 9:-1 10:-1 
-32768 1:1 2:-1 3:-1 4:-0.999899 5:-0.986752 6:1 7:0.6 9:1 10:-1 
-32768 1:1 2:-1 3:-1 4:-0.999996 5:-0.999386 6:1 7:0.0285714 8:-0.166667 9:-1 10:-1 
-32768 1:1 2:1 3:-1 4:-0.999997 5:-0.999224 6:1 7:-0.314286 8:-0.333333 9:-1 10:-1 
-32768 1:-0.5 2:1 3:-1 4:-0.999988 5:-0.99235 6:1 7:-0.428571 8:-0.333333 9:-1 10:-1 
-32768 2:-1 3:-1 4:-0.999995 5:-0.998721 6:1 7:1 8:-0.166667 9:-1 10:-1 
-32768 1:-0.5 2:1 3:-1 4:-0.99971 5:-0.997296 6:1 7:-1 9:-1 10:-1 
-32768 1:1 2:-1 3:-1 4:-0.999687 5:-0.997625 6:1 7:-0.0285714 8:-0.333333 9:-1 10:-1 
-32768 1:0.5 2:-1 3:-1 4:-0.999989 5:-0.998911 6:1 7:-0.142857 8:-0.5 9:-1 10:-1 
-32768 1:-0.5 2:-1 3:-1 4:-0.999883 5:-0.968035 6:1 7:0.942857 8:-0.166667 9:-1 10:-1 
-32768 1:1 2:-1 3:-1 4:-0.999993 5:-0.999338 6:1 7:-0.0857143 8:-0.5 9:-1 10:-1 
-32768 1:-0.5 2:1 3:-1 4:-0.999939 5:-0.986217 6:1 7:-0.6 9:1 10:-1 
-32768 1:1 2:-1 3:-1 4:-0.999741 5:-0.991492 6:1 7:-0.142857 8:-0.166667 9:1 10:-1 
-32768 1:-0.5 2:-1 3:-1 4:-0.999996 5:-0.999544 6:1 7:-0.942857 8:-0.333333 9:-1 10:-1 
-32768 1:-0.5 2:-1 3:-1 4:-0.999998 5:-0.999227 6:1 7:-1 8:-0.333333 9:-1 10:-1 
-32768 1:1 2:1 3:-1 4:-0.999979 5:-0.984713 6:1 7:-0.428571 8:-0.333333 9:-1 10:-1 
-30502.29655064318 1:0.5 2:-1 3:1 4:-0.999965 5:-0.984741 6:1 7:-1 8:-0.166667 9:-1 10:-1 
-32768 1:0.5 2:-1 3:-1 4:-0.999755 5:-0.998262 6:1 7:-0.314286 8:-0.333333 9:1 10:-1 
-32768 1:0.5 2:-1 3:1 4:-0.999979 5:-0.999728 6:1 7:0.2 8:-0.666667 9:-1 
-1854.293024786389 1:-0.5 2:1 3:-1 4:-0.999959 5:-0.999003 6:1 7:-0.828571 8:-0.666667 9:-1 10:-1 
-32768 1:-0.5 2:1 3:-1 4:-0.999959 5:-0.99905 6:1 7:-0.828571 8:-0.666667 9:-1 10:-1 
-6586.826984313806 1:1 2:1 3:-1 4:-0.999989 5:-0.999601 6:1 7:-0.485714 8:-0.666667 9:1 10:-1 
-22574.36674184869 2:1 3:1 4:-0.999997 5:-0.999373 6:1 7:-0.0285714 8:-0.666667 9:-1 10:-1 
